svm_type npsvor
kernel_type rbf
gamma 0.01
nr_class 10
total_sv 986
rho -0.541817 -0.167472 -0.696961 -1.37357 -0.340616 -0.808794 -1.87751 -1.79993 -0.143201 0.644657
label 1 2 3 4 5 6 7 8 9 10
nr_sv -632274280 32609 -632274280 32609 26774624 0 26774624 0 -621301040 214
SV
10 -0 -0 -0 -0 -0 -0 -0 -0 -0 1:-0.7594 2:-0.67475 3:1.45328 4:-3.28073 5:-3.10239 6:-2.61831 7:-1.66346 8:-1.59877 9:-1.62017 10:-1.68697 
1.38664511777381 -0 -0 -0 -0 -0 -0.6239524052109753 -0 -0 -0 1:-0.7594 2:-0.67475 3:1.45328 4:-2.98929 5:-2.90086 6:-2.14016 7:-1.64715 8:-1.58525 9:-1.60648 10:-1.61513 
-10 -10 -0 -0 -0 -0 -0 -0 -0 -0 1:-0.7594 2:-0.67475 3:1.45328 4:-2.03169 5:-1.99397 6:-1.30338 7:-1.47279 8:-1.44334 9:-1.37841 10:-1.50019 
10 -0 -0 -0 -0 -0 -0 -0 -0 -0 1:-0.7594 2:-0.67475 3:1.45328 4:-2.98929 5:-3.00163 6:-2.85739 7:-1.65122 8:-1.58976 9:-1.62473 10:-1.67979 
10 -0 -0 -0 -0 -0 -0 -0 -0 -0 1:-0.7594 2:-0.67475 3:1.45328 4:-3.03092 5:-3.00163 6:-2.73785 7:-1.6502 8:-1.58525 9:-1.60192 10:-1.6726 
-10 -0 -0 -0 -0 -0 -0 -0 -0 -0 1:-0.7594 2:-0.67475 3:1.45328 4:-2.23987 5:-2.14512 6:-2.02062 7:-1.54213 8:-1.49064 9:-1.49245 10:-1.56485 
-10 -0 -0 -0 -0 -0 -0 -0 -0 -0 1:-0.7594 2:-0.67475 3:1.45328 4:-2.07333 5:-2.09474 6:-2.02062 7:-1.50134 8:-1.44784 9:-1.45596 10:-1.52893 
-10 -10 -0 -0 -0 -0 -0 -0 -0 -0 1:-0.7594 2:-0.67475 3:1.45328 4:-1.74025 5:-1.74205 6:-1.54246 7:-1.42793 8:-1.38927 9:-1.3921 10:-1.42476 
-0 -10 -10 -0 -0 -0 -0 -0 -0 -0 1:1.31652 2:-0.67475 3:-0.68794 4:-2.98929 5:-2.85048 6:-2.37924 7:-1.64001 8:-1.57624 9:-1.60648 10:-1.65824 
-10 -0 -0 -0 -0 -0 -0 -0 -0 -0 1:-0.7594 2:-0.67475 3:1.45328 4:-2.19823 5:-2.04435 6:-1.662 7:-1.49217 8:-1.43207 9:-1.4742 10:-1.4966 
-10 -10 -10 -10 -0 -0 -0 -0 -0 -0 1:1.31652 2:-0.67475 3:-0.68794 4:-2.32314 5:-2.29627 6:-1.78154 7:-1.56048 8:-1.50866 9:-1.52438 10:-1.57203 
-10 -0 -0 -0 -0 -0 -0 -0 -0 -0 1:-0.7594 2:-0.67475 3:1.45328 4:-2.23987 5:-2.1955 6:-1.54246 7:-1.51358 8:-1.46361 9:-1.46052 10:-1.53611 
-10 -10 -0 -0 -0 -0 -0 -0 -0 -0 1:-0.7594 2:-0.67475 3:1.45328 4:-1.69862 5:-1.69167 6:-1.18384 7:-1.3688 8:-1.30367 9:-1.40578 10:-1.4104 
-10 -10 -10 -10 -0 -0 -0 -0 -0 -0 1:-0.7594 2:-0.67475 3:1.45328 4:-0.86593 5:-0.88554 6:-0.58614 7:-0.92323 8:-0.85765 9:-0.80823 10:-0.99733 
-10 -10 -0 -0 -0 -0 -0 -0 -0 -0 1:-0.7594 2:-0.67475 3:1.45328 4:-1.53208 5:-1.43976 6:-1.42292 7:-1.27907 8:-1.21357 9:-1.2142 10:-1.3206 
-10 -10 -0 -0 -0 -0 -0 -0 -0 -0 1:-0.7594 2:-0.67475 3:1.45328 4:-1.15737 5:-1.28861 6:-1.18384 7:-1.22503 8:-1.15725 9:-1.26438 10:-1.24517 
-10 -10 -10 -0 -0 -0 -0 -0 -0 -0 1:-0.7594 2:-0.67475 3:1.45328 4:-1.0741 5:-1.38937 6:-0.94476 7:-1.08127 8:-0.96803 9:-1.09104 10:-1.12664 
-10 -10 -10 -0 -0 -0 -0 -0 -0 -0 1:-0.7594 2:-0.67475 3:1.45328 4:-1.03247 5:-1.18784 6:-0.94476 7:-1.14448 8:-1.07616 9:-1.0956 10:-1.16615 
-10 -10 -0 -0 -0 -0 -0 -0 -0 -0 1:-0.7594 2:-0.67475 3:1.45328 4:-1.32391 5:-1.54052 6:-1.42292 7:-1.28519 8:-1.26538 9:-1.3328 10:-1.33497 
-10 -10 -10 -10 -0 -0 -0 -0 -0 -0 1:-0.7594 2:-0.67475 3:1.45328 4:-0.69939 5:-0.68401 6:-0.82522 7:-0.93751 8:-0.88018 9:-0.91771 10:-0.98655 
-10 -0 -0 -0 -0 -0 -0 -0 -0 -0 1:-0.7594 2:-0.67475 3:1.45328 4:-1.99006 5:-1.99397 6:-2.02062 7:-1.48401 8:-1.43207 9:-1.49245 10:-1.47505 
-10 -10 -0 -0 -0 -0 -0 -0 -0 -0 1:-0.7594 2:-0.67475 3:1.45328 4:-1.94843 5:-1.99397 6:-1.662 7:-1.4626 8:-1.40279 9:-1.46052 10:-1.50019 
-10 -0 -0 -0 -0 -0 -0 -0 -0 -0 1:-0.7594 2:-0.67475 3:1.45328 4:-2.23987 5:-2.1955 6:-1.90108 7:-1.5146 8:-1.43883 9:-1.47876 10:-1.53611 
-10 -10 -10 -10 -10 -0 -0 -0 -0 -0 1:1.31652 2:-0.67475 3:-0.68794 4:-1.24064 5:-1.03669 6:-1.18384 7:-1.02825 8:-0.99056 9:-1.13209 10:-1.03325 
-10 -10 -10 -10 -10 -6.276627612839005 -0 -0 -0 -0 1:-0.7594 2:1.48167 3:-0.68794 4:-1.94843 5:-1.84282 6:-1.54246 7:-1.40448 8:-1.38702 9:-1.43315 10:-1.42836 
-9.568705788456272 -10 -10 -0.1524726830300859 -0 -0 -0 -0 -0 -0 1:1.31652 2:-0.67475 3:-0.68794 4:-2.90602 5:-2.74971 6:-2.37924 7:-1.62777 8:-1.56948 9:-1.57912 10:-1.64387 
-10 -10 -0 -0 -0 -0 -0 -0 -0 -0 1:-0.7594 2:-0.67475 3:1.45328 4:-1.36554 5:-1.49014 6:-1.42292 7:-1.32393 8:-1.28565 9:-1.36017 10:-1.28468 
-10 -10 -0 -0 -0 -0 -0 -0 -0 -0 1:-0.7594 2:-0.67475 3:1.45328 4:-1.24064 5:-1.43976 6:-1.0643 7:-1.29029 8:-1.2361 9:-1.26438 10:-1.29546 
-10 -10 -0 -0 -0 -0 -0 -0 -0 -0 1:-0.7594 2:-0.67475 3:1.45328 4:-1.44881 5:-1.43976 6:-1.0643 7:-1.28417 8:-1.29016 9:-1.20052 10:-1.28468 
-10 -10 -10 -0 -0 -0 -0 -0 -0 -0 1:-0.7594 2:-0.67475 3:1.45328 4:-1.0741 5:-1.08708 6:-1.18384 7:-1.10778 8:-0.99506 9:-1.07736 10:-1.16256 
-10 -0 -0 -0 -0 -0 -0 -0 -0 -0 1:-0.7594 2:-0.67475 3:1.45328 4:-2.11496 5:-2.1955 6:-1.90108 7:-1.48809 8:-1.41856 9:-1.49245 10:-1.50019 
-10 -10 -0 -0 -0 -0 -0 -0 -0 -0 1:-0.7594 2:-0.67475 3:1.45328 4:-1.36554 5:-1.28861 6:-1.42292 7:-1.33209 8:-1.25412 9:-1.18683 10:-1.21284 
-10 -10 -10 -10 -6.864384276168537 -3.745479892103596 -0 -0 -0 -0 1:1.31652 2:-0.67475 3:-0.68794 4:-2.11496 5:-2.09474 6:-1.42292 7:-1.44425 8:-1.40955 9:-1.3921 10:-1.42836 
-10 -10 -0 -0 -0 -0 -0 -0 -0 -0 1:-0.7594 2:-0.67475 3:1.45328 4:-1.90679 5:-1.94359 6:-1.30338 7:-1.42895 8:-1.39829 9:-1.33736 10:-1.42836 
-10 -10 -0 -0 -0 -0 -0 -0 -0 -0 1:-0.7594 2:-0.67475 3:1.45328 4:-2.07333 5:-2.04435 6:-1.54246 7:-1.46464 8:-1.41631 9:-1.38753 10:-1.46427 
-10 -10 -0 -0 -0 -0 -0 -0 -0 -0 1:-0.7594 2:-0.67475 3:1.45328 4:-1.53208 5:-1.49014 6:-1.42292 7:-1.28213 8:-1.25862 9:-1.14122 10:-1.3206 
-10 -0 -0 -0 -0 -0 -0 -0 -0 -0 1:-0.7594 2:-0.67475 3:1.45328 4:-2.2815 5:-2.1955 6:-1.90108 7:-1.53397 8:-1.45685 9:-1.54262 10:-1.5397 
-10 -10 -0 -0 -0 -0 -0 -0 -0 -0 1:-0.7594 2:-0.67475 3:1.45328 4:-1.44881 5:-1.38937 6:-1.18384 7:-1.27091 8:-1.28115 9:-1.12297 10:-1.27031 
-10 -10 -10 -0 -0 -0 -0 -0 -0 -0 1:-0.7594 2:-0.67475 3:1.45328 4:-1.03247 5:-0.98631 6:-0.94476 7:-1.06597 8:-1.03336 9:-1.10016 10:-1.04043 
-10 -10 -10 -10 -10 -0 -0 -0 -0 -0 1:1.31652 2:-0.67475 3:-0.68794 4:-0.90756 5:-1.03669 6:-0.94476 7:-1.02723 8:-0.91622 9:-1.18683 10:-1.06198 
-10 -0 -0 -0 -0 -0 -0 -0 -0 -0 1:-0.7594 2:-0.67475 3:1.45328 4:-2.23987 5:-2.1955 6:-2.14016 7:-1.52072 8:-1.48614 9:-1.4514 10:-1.52174 
-10 -10 -10 -0 -0 -0 -0 -0 -0 -0 1:-0.7594 2:-0.67475 3:1.45328 4:-1.28227 5:-1.18784 6:-1.0643 7:-1.18221 8:-1.14824 9:-1.11841 10:-1.23439 
-10 -10 -0 -0 -0 -0 -0 -0 -0 -0 1:-0.7594 2:-0.67475 3:1.45328 4:-1.24064 5:-1.28861 6:-1.18384 7:-1.25154 8:-1.2406 9:-1.10016 10:-1.3206 
-10 -10 -10 -10 -10 -0 -0 -0 -0 -0 1:-0.7594 2:-0.67475 3:1.45328 4:-0.69939 5:-0.63363 6:-0.22752 7:-0.77335 8:-0.67744 9:-0.88578 10:-0.75308 
-10 -10 -10 -10 -10 -10 -0 -0 -0 -0 1:-0.7594 2:1.48167 3:-0.68794 4:-0.65776 5:-0.73439 6:-0.70568 7:-0.8019 8:-0.70673 9:-0.64858 10:-0.85725 
-10 -10 -10 -10 -10 -0 -0 -0 -0 -10 1:-0.7594 2:1.48167 3:-0.68794 4:-0.49122 5:-0.58325 6:-0.34706 7:-0.70708 8:-0.58283 9:-0.68051 10:-0.92908 
-10 -10 -10 -10 -10 -10 -0 -0 -0 -0 1:1.31652 2:-0.67475 3:-0.68794 4:-0.36632 5:-0.33133 6:-0.58614 7:-0.31045 8:-0.17511 9:-0.67595 10:-0.49447 
-10 -0 -0 -0 -0 -0 -0 -0 -0 -0 1:-0.7594 2:-0.67475 3:1.45328 4:-2.07333 5:-2.14512 6:-1.78154 7:-1.47381 8:-1.37576 9:-1.46508 10:-1.51456 
-10 -10 -0 -0 -0 -0 -0 -0 -0 -0 1:-0.7594 2:-0.67475 3:1.45328 4:-1.28227 5:-1.28861 6:-0.94476 7:-1.23931 8:-1.09418 9:-1.40578 10:-1.25954 
-10 -10 -0 -0 -0 -0 -0 -0 -0 -0 1:-0.7594 2:-0.67475 3:1.45328 4:-1.24064 5:-1.33899 6:-0.94476 7:-1.21586 8:-1.09418 9:-1.26438 10:-1.24876 
-10 -10 -0 -0 -0 -0 -0 -4.67939857749564 -0 -0 1:-0.7594 2:-0.67475 3:1.45328 4:-1.65698 5:-1.84282 6:-1.54246 7:-1.40652 8:-1.3645 9:-1.3556 10:-1.06917 
-10 -10 -5.834277502115327 -0 -0 -0 -0 -0 -0 -0 1:-0.7594 2:-0.67475 3:1.45328 4:-1.24064 5:-1.33899 6:-1.0643 7:-1.18731 8:-1.12346 9:-1.26894 10:-1.15896 
-10 -10 -0 -0 -0 -0 -0 -0 -0 -0 1:-0.7594 2:-0.67475 3:1.45328 4:-1.28227 5:-1.38937 6:-1.0643 7:-1.21688 8:-1.0221 9:-1.2735 10:-1.2739 
-10 -10 -10 -0 -0 -0 -0 -0 -0 -0 1:-0.7594 2:-0.67475 3:1.45328 4:-0.99083 5:-1.08708 6:-0.82522 7:-1.07005 8:-0.96353 9:-1.09104 10:-1.13741 
-10 -10 -10 -0 -0 -0 -0 -0 -0 -0 1:-0.7594 2:-0.67475 3:1.45328 4:-0.99083 5:-1.08708 6:-1.18384 7:-1.14142 8:-1.155 9:-1.0363 10:-0.92549 
-10 -5.545018879542979 -0 -0 -0 -0 -0 -0 -0 -0 1:-0.7594 2:-0.67475 3:1.45328 4:-1.94843 5:-1.99397 6:-1.90108 7:-1.44628 8:-1.36675 9:-1.43315 10:-1.50019 
-10 -10 -0 -0 -0 -0 -0 -0 -0 -0 1:-0.7594 2:-0.67475 3:1.45328 4:-1.94843 5:-1.99397 6:-1.78154 7:-1.49217 8:-1.4501 9:-1.44683 10:-1.50019 
-10 -10 -0 -0 -0 -0 -0 -0 -0 -0 1:-0.7594 2:-0.67475 3:1.45328 4:-1.99006 5:-1.94359 6:-1.662 7:-1.47076 8:-1.38927 9:-1.44227 10:-1.52174 
-10 -10 -10 -0 -0 -0 -0 -0 -0 -0 1:-0.7594 2:-0.67475 3:1.45328 4:-0.86593 5:-0.93593 6:-0.58614 7:-0.96605 8:-0.7653 9:-1.05455 10:-1.09072 
-10 -10 -10 -0 -0 -0 -0 -0 -0 -0 1:-0.7594 2:-0.67475 3:1.45328 4:-1.19901 5:-1.28861 6:-1.30338 7:-1.13225 8:-1.10094 9:-1.09104 10:-1.10509 
-10 -10 -10 -10 -10 -10 -0 -0 -0 -0 1:1.31652 2:-0.67475 3:-0.68794 4:-1.36554 5:-1.38937 6:-1.18384 7:-1.23625 8:-1.24511 9:-1.16402 10:-1.17692 
-10 -10 -0 -0 -0 -0 -0 -0 -0 -0 1:-0.7594 2:-0.67475 3:1.45328 4:-1.61535 5:-1.43976 6:-1.18384 7:-1.32291 8:-1.31269 9:-1.31911 10:-1.28468 
-10 -10 -0 -0 -0 -0 -0 -0 -0 -0 1:-0.7594 2:-0.67475 3:1.45328 4:-2.07333 5:-2.04435 6:-1.42292 7:-1.49421 8:-1.45685 9:-1.47876 10:-1.50019 
-10 -10 -0 -0 -0 -0 -0 -0 -0 -0 1:-0.7594 2:-0.67475 3:1.45328 4:-1.78189 5:-1.84282 6:-1.54246 7:-1.37389 8:-1.3262 9:-1.30999 10:-1.4535 
-10 -10 -10 -0 -0 -0 -0 -0 -0 -0 1:-0.7594 2:-0.67475 3:1.45328 4:-0.69939 5:-0.83516 6:-0.94476 7:-0.84064 8:-0.78557 9:-0.85841 10:-0.92549 
-10 -10 -10 -10 -10 -10 -0 -0 -0 -0 1:-0.7594 2:1.48167 3:-0.68794 4:-0.53285 5:-0.58325 6:-0.58614 7:-0.75194 8:-0.70673 9:-0.63033 10:-0.8788 
-10 -10 -10 -10 -10 -10 -0 -0 -0 -0.9107475933126399 1:-0.7594 2:1.48167 3:-0.68794 4:0.05003 5:0.12212 6:0.7288 7:-0.00151 8:0.22811 9:0.25003 10:-0.63455 
-10 -10 -0 -0 -0 -0 -0 -0 -0 -0 1:-0.7594 2:-0.67475 3:1.45328 4:-1.61535 5:-1.69167 6:-1.54246 7:-1.35758 8:-1.2834 9:-1.34648 10:-1.37089 
-10 -10 -0 -0 -0 -0 -0 -0 -0 -0 1:-0.7594 2:-0.67475 3:1.45328 4:-1.40718 5:-1.23822 6:-1.0643 7:-1.22605 8:-1.18879 9:-1.2142 10:-1.20207 
-10 -10 -10 -10 -0 -0 -0 -0 -0 -0 1:-0.7594 2:-0.67475 3:1.45328 4:-0.8243 5:-0.78478 6:-0.58614 7:-1.02417 8:-1.0266 9:-0.94507 10:-0.97578 
-10 -10 -10 -10 -0 -0 -0 -0 -0 -0 1:-0.7594 2:-0.67475 3:1.45328 4:-0.53285 5:-0.38171 6:-0.4666 7:-0.60206 8:-0.4274 9:-0.66226 10:-0.74949 
-10 -10 -0 -0 -0 -0 -0 -0 -0 -0 1:-0.7594 2:-0.67475 3:1.45328 4:-1.53208 5:-1.64129 6:-1.30338 7:-1.27907 8:-1.16626 9:-1.30087 10:-1.33497 
-10 -10 -10 -0 -0 -0 -0 -0 -0 -0 1:-0.7594 2:-0.67475 3:1.45328 4:-0.99083 5:-1.08708 6:-1.18384 7:-1.10166 8:-0.99732 9:-1.06823 10:-1.16615 
-10 -10 -0 -0 -0 -0 -0 -0 -0 -0 1:-0.7594 2:-0.67475 3:1.45328 4:-1.78189 5:-1.79244 6:-1.662 7:-1.43609 8:-1.39153 9:-1.40578 10:-1.44272 
-10 -10 -10 -0 -0 -0 -0 -0 -0 -0 1:-0.7594 2:-0.67475 3:1.45328 4:-0.9492 5:-1.03669 6:-1.0643 7:-1.15468 8:-1.16852 9:-1.17771 10:-1.06917 
-10 -10 -10 -10 -0 -0 -0 -0 -0 -0 1:-0.7594 2:-0.67475 3:1.45328 4:-0.86593 5:-0.88554 6:-0.70568 7:-1.05986 8:-1.10094 9:-1.05911 10:-1.03684 
-10 -10 -10 -10 -10 -0 -0 -0 -0 -0 1:1.31652 2:-0.67475 3:-0.68794 4:-1.44881 5:-1.43976 6:-1.18384 7:-1.22809 8:-1.17077 9:-1.12297 10:-1.24876 
-10 -10 -10 -10 -10 -10 -0 -0 -0 -0 1:-0.7594 2:1.48167 3:-0.68794 4:-1.15737 5:-1.08708 6:-0.94476 7:-1.13429 8:-1.11671 9:-1.12753 10:-1.141 
-10 -10 -0 -0 -0 -0 -0 -0 -0 -0 1:-0.7594 2:-0.67475 3:1.45328 4:-1.44881 5:-1.43976 6:-1.42292 7:-1.29844 8:-1.25412 9:-1.22332 10:-1.33497 
-10 -10 -10 -0 -0 -0 -0 -0 -0 -0 1:-0.7594 2:-0.67475 3:1.45328 4:-0.90756 5:-0.98631 6:-0.82522 7:-0.95688 8:-0.86666 9:-0.89034 10:-1.05839 
-10 -10 -0 -0 -0 -0 -0 -0 -0 -0 1:-0.7594 2:-0.67475 3:1.45328 4:-2.03169 5:-1.99397 6:-1.78154 7:-1.46362 8:-1.42757 9:-1.38753 10:-1.50019 
-10 -10 -10 -0 -0 -0 -0 -0 -0 -0 1:-0.7594 2:-0.67475 3:1.45328 4:-1.03247 5:-1.08708 6:-0.70568 7:-1.08127 8:-0.99957 9:-0.99981 10:-1.17692 
-10 -10 -10 -0 -0 -0 -0 -0 -0 -0 1:-0.7594 2:-0.67475 3:1.45328 4:-0.49122 5:-0.63363 6:-0.82522 7:-0.87123 8:-0.52877 9:-1.3328 10:-0.93268 
-10 -10 -0 -0 -0 -0 -0 -0 -0 -0 1:-0.7594 2:-0.67475 3:1.45328 4:-1.61535 5:-1.79244 6:-1.30338 7:-1.34432 8:-1.26313 9:-1.41034 10:-1.35293 
-10 -10 -10 -0 -0 -0 -0 -0 -0 -0 1:-0.7594 2:-0.67475 3:1.45328 4:-1.03247 5:-0.98631 6:-0.58614 7:-1.04966 8:-0.92298 9:-1.10473 10:-1.09072 
-10 -10 -0 -0 -0 -0 -0 -0 -0 -0 1:-0.7594 2:-0.67475 3:1.45328 4:-1.82352 5:-1.79244 6:-1.54246 7:-1.39327 8:-1.35098 9:-1.36929 10:-1.35652 
9.378668819346363 -10 -10 -10 -10 -0 -0 -0 -0 -0 1:1.31652 2:-0.67475 3:-0.68794 4:-1.19901 5:-1.38937 6:-1.0643 7:-1.24338 8:-1.24285 9:-1.17771 10:-1.21284 
10 10 -0 -0 -0 -0 -0 -0 -0 -0 1:-0.7594 2:-0.67475 3:1.45328 4:-2.4064 5:-2.34665 6:-1.78154 7:-1.56456 8:-1.52668 9:-1.46508 10:-1.57921 
10 -0 -10 -0 -0 -0 -0 -0 -0 -0 1:-0.7594 2:-0.67475 3:1.45328 4:-0.90756 5:-0.98631 6:-1.0643 7:-0.99664 8:-0.80359 9:-1.12753 10:-1.11945 
10 10 -0 -0 -0 -0 -0 -0 -0 -0 1:-0.7594 2:-0.67475 3:1.45328 4:-1.61535 5:-1.64129 6:-1.78154 7:-1.3953 8:-1.35774 9:-1.3556 10:-1.35293 
10 -0 -10 -10 -0 -0 -0 -0 -0 -0 1:-0.7594 2:-0.67475 3:1.45328 4:-1.03247 5:-1.08708 6:-0.58614 7:-1.0415 8:-1.01759 9:-0.98613 10:-1.04402 
0 -10 -10 -10 -0 -0 -0 -0 -0 -0 1:-0.7594 2:-0.67475 3:1.45328 4:-0.69939 5:-0.58325 6:-0.70568 7:-0.91405 8:-0.90946 9:-0.83104 10:-0.88957 
0 -10 -10 -10 -10 -10 -10 -0 -0 -0 1:-0.7594 2:1.48167 3:-0.68794 4:-0.15815 5:-0.07942 6:-0.34706 7:-0.50112 8:-0.51075 9:-0.46156 10:-0.45855 
10 10 -0 -0 -0 -0 -0 -0 -0 -0 1:-0.7594 2:-0.67475 3:1.45328 4:-1.44881 5:-1.49014 6:-1.0643 7:-1.2597 8:-1.23159 9:-1.13666 10:-1.22721 
10 -10 -10 -10 -10 -0 -0 -0 -0 -0 1:-0.7594 2:1.48167 3:-0.68794 4:-1.82352 5:-1.79244 6:-1.42292 7:-1.37185 8:-1.31494 9:-1.3328 10:-1.37089 
10 -0 -10 -0 -0 -0 -0 -0 -0 -0 1:-0.7594 2:-0.67475 3:1.45328 4:-1.28227 5:-1.28861 6:-1.0643 7:-1.14856 8:-1.0694 9:-1.17315 10:-1.141 
10 -10 -10 -10 -10 -0 -0 -0 -0 -0 1:-0.7594 2:-0.67475 3:1.45328 4:-0.99083 5:-1.08708 6:-0.4666 7:-1.02927 8:-1.04913 9:-1.00893 10:-0.92549 
10 10 -0 -0 -0 -0 -0 -0 -0 -0 1:-0.7594 2:-0.67475 3:1.45328 4:-1.32391 5:-1.38937 6:-1.30338 7:-1.27193 8:-1.26763 9:-1.20508 10:-1.21284 
10 10 -0 -0 -0 -0 -0 -0 -0 -0 1:-0.7594 2:-0.67475 3:1.45328 4:-1.61535 5:-1.59091 6:-0.82522 7:-1.34025 8:-1.32395 9:-1.32824 10:-1.28468 
0 -10 -10 -10 -10 -10 -10 -10 -10 -0 1:-0.7594 2:1.48167 3:-0.68794 4:-0.74103 5:-0.83516 6:-0.70568 7:-0.80598 8:-0.81711 9:-0.74893 10:-0.60222 
10 -0 -10 -0 -0 -0 -0 -0 -0 -0 1:-0.7594 2:-0.67475 3:1.45328 4:-1.36554 5:-1.33899 6:-1.0643 7:-1.24746 8:-1.2406 9:-1.25069 10:-1.06917 
10 -0 -10 -0 -0 -0 -0 -0 -0 -0 1:-0.7594 2:-0.67475 3:1.45328 4:-1.28227 5:-1.33899 6:-0.94476 7:-1.22197 8:-1.22033 9:-1.22332 10:-1.21284 
10 10 -0 -0 -0 -0 -0 -0 -0 -0 1:-0.7594 2:-0.67475 3:1.45328 4:-1.65698 5:-1.59091 6:-1.42292 7:-1.33107 8:-1.35098 9:-1.32367 10:-1.26313 
0 -10 -10 -0 -0 -0 -0 -0 -0 -0 1:-0.7594 2:-0.67475 3:1.45328 4:-0.65776 5:-0.73439 6:-0.94476 7:-0.69178 8:-0.38235 9:-0.86297 10:-0.9219 
10 10 -0 -0 -0 -0 -0 -0 -0 -0 1:-0.7594 2:-0.67475 3:1.45328 4:-1.57372 5:-1.59091 6:-1.54246 7:-1.31782 8:-1.30142 9:-1.24613 10:-1.3206 
10 10 -0 -0 -0 -0 -0 -0 -0 -0 1:-0.7594 2:-0.67475 3:1.45328 4:-1.53208 5:-1.59091 6:-1.662 7:-1.23625 8:-1.1505 9:-1.25981 10:-1.3206 
10 -0 -10 -0 -0 -0 -0 -0 -0 -0 1:-0.7594 2:-0.67475 3:1.45328 4:-1.28227 5:-1.28861 6:-1.0643 7:-1.10574 8:-0.941 9:-1.01806 10:-1.1446 
0 -10 -10 -9.883411802675891 -0 -0 -0 -0 -0 -0 1:-0.7594 2:-0.67475 3:1.45328 4:-0.78266 5:-0.83516 6:-0.94476 7:-0.94668 8:-0.90946 9:-0.8949 10:-0.96141 
0 -10 -10 -10 -10 -10 -0 -0 -0 -0 1:-0.7594 2:-0.67475 3:1.45328 4:-0.61612 5:-0.48248 6:-0.22752 7:-0.71523 8:-0.75854 9:-0.48893 10:-0.73153 
0 -10 -10 -10 -10 -10 -0 -0 -0 -10 1:-0.7594 2:1.48167 3:-0.68794 4:-0.32468 5:-0.38171 6:-0.58614 7:-0.71421 8:-0.72024 9:-0.7763 10:-0.789 
0 -10 -10 -10 -10 -10 -10 -0 -0 -0 1:1.31652 2:-0.67475 3:-0.68794 4:0.05003 5:-0.02903 6:-0.34706 7:-0.36143 8:-0.39587 9:-0.18331 10:-0.37952 
0 -10 -10 -10 -10 -10 -10 -0 -0 -0 1:1.31652 2:-0.67475 3:-0.68794 4:0.3831 5:0.52518 6:0.7288 7:0.15245 8:0.21685 9:0.11774 10:-0.17838 
10 -0 -0 -0 -0 -0 -0 -0 -0 -0 1:-0.7594 2:-0.67475 3:1.45328 4:-1.15737 5:-1.18784 6:-1.42292 7:-1.18323 8:-1.0694 9:-1.19595 10:-1.24876 
0 -10 -10 -10 -0 -0 -0 -0 -0 -0 1:-0.7594 2:-0.67475 3:1.45328 4:-0.69939 5:-0.78478 6:-0.70568 7:-0.93445 8:-0.92298 9:-0.88121 10:-0.85365 
0 -10 -10 -10 -10 -10 -0 -0 -0 -0 1:-0.7594 2:-0.67475 3:1.45328 4:-0.65776 5:-0.68401 6:0.1311 7:-0.80496 8:-0.74277 9:-0.82192 10:-0.78182 
0 -10 -10 -10 -0 -0 -0 -0 -0 -0 1:-0.7594 2:-0.67475 3:1.45328 4:-0.53285 5:-0.58325 6:-0.58614 7:-0.84268 8:-0.8081 9:-0.75349 10:-0.87161 
0 -10 -10 -10 -0 -0 -0 -0 -0 -0 1:-0.7594 2:-0.67475 3:1.45328 4:-0.40795 5:-0.58325 6:-0.94476 7:-0.76315 8:-0.64365 9:-0.6349 10:-0.88957 
0 -10 -10 -10 -10 -10 -10 -0 -0 -0 1:-0.7594 2:1.48167 3:-0.68794 4:0.42474 5:0.52518 6:0.1311 7:0.33801 8:0.48041 9:0.44161 10:0.18799 
0 -10 -10 -10 -10 -10 -10 -0 -0 -0 1:1.31652 2:-0.67475 3:-0.68794 4:0.50801 5:0.57556 6:0.48972 7:0.25848 8:0.45112 9:0.50547 10:0.18799 
10 10 -0 -0 -0 -0 -0 -0 -0 -0 1:-0.7594 2:-0.67475 3:1.45328 4:-1.32391 5:-1.43976 6:-1.30338 7:-1.25562 8:-1.1933 9:-1.20052 10:-1.28468 
0 -10 -10 -10 -10 -10 -10 -10 -10 -0 1:-0.7594 2:-0.67475 3:1.45328 4:-0.9492 5:-0.73439 6:-0.70568 7:-1.01703 8:-0.91172 9:-1.00437 10:-0.49447 
10 -10 -10 -0 -0 -0 -0 -0 -0 -0 1:-0.7594 2:-0.67475 3:1.45328 4:-0.8243 5:-0.83516 6:-0.70568 7:-1.0099 8:-0.83963 9:-1.23701 10:-0.99733 
0 -10 -10 -10 -0 -0 -0 -0 -0 -0 1:-0.7594 2:-0.67475 3:1.45328 4:-0.8243 5:-0.88554 6:-0.94476 7:-1.06699 8:-1.05138 9:-1.10016 10:-0.95423 
0 -10 -10 -10 -0 -0 -0 -0 -0 -0 1:-0.7594 2:-0.67475 3:1.45328 4:-0.53285 5:-0.48248 6:-0.82522 7:-0.7397 8:-0.61662 9:-0.74437 10:-0.92549 
10 10 -0 -0 -0 -0 -0 -0 -0 -0 1:-0.7594 2:-0.67475 3:1.45328 4:-1.24064 5:-1.28861 6:-1.30338 7:-1.0466 8:-0.77656 9:-1.22788 10:-1.23439 
6.54401997085224 -10 -10 -10 -0 -0 -0 -0 -0 -0 1:-0.7594 2:-0.67475 3:1.45328 4:-0.57449 5:-0.73439 6:-0.10798 7:-0.66833 8:-0.3846 9:-0.73981 10:-0.95063 
10 10 -0 -0 -0 -0 -0 -0 -0 -0 1:-0.7594 2:-0.67475 3:1.45328 4:-1.36554 5:-1.33899 6:-1.54246 7:-1.24033 8:-1.17527 9:-1.24613 10:-1.24158 
10 10 -0 -0 -0 -0 -0 -0 -0 -0 1:-0.7594 2:-0.67475 3:1.45328 4:-1.32391 5:-1.38937 6:-1.30338 7:-1.23625 8:-1.1978 9:-1.16859 10:-1.24158 
10 -0 -10 -0 -0 -0 -0 -0 -0 -0 1:-0.7594 2:-0.67475 3:1.45328 4:-1.11574 5:-1.08708 6:-1.18384 7:-1.17609 8:-1.13923 9:-1.16402 10:-1.141 
10 -0 -10 -0 -0 -0 -0 -0 -0 -0 1:-0.7594 2:-0.67475 3:1.45328 4:-1.11574 5:-1.23822 6:-0.94476 7:-1.11695 8:-1.04462 9:-1.08192 10:-1.16256 
0 -10 -10 -10 -10 -0 -0 -0 -0 -0 1:1.31652 2:-0.67475 3:-0.68794 4:-0.40795 5:-0.48248 6:-0.94476 7:-0.81617 8:-0.73376 9:-0.74437 10:-0.91112 
0 -10 -10 -10 -10 -10 -10 -10 -1.322551970123711 -0 1:-0.7594 2:-0.67475 3:1.45328 4:-0.03324 5:-0.18018 6:-0.22752 7:-0.55923 8:-0.55805 9:-0.64858 10:-0.35438 
0 -10 -10 -10 -10 -10 -10 -10 -10 -0 1:-0.7594 2:1.48167 3:-0.68794 4:1.63214 5:1.18016 6:0.96788 7:1.25667 8:1.22377 9:1.28548 10:1.40923 
0 -10 -10 -10 -10 -10 -0 -0 -0 -0 1:1.31652 2:-0.67475 3:-0.68794 4:-0.65776 5:-0.88554 6:-0.4666 7:-0.84574 8:-0.7225 9:-0.82648 10:-0.8752 
10 10 -0 -0 -0 -0 -0 -0 -0 -0 1:-0.7594 2:-0.67475 3:1.45328 4:-1.44881 5:-1.43976 6:-1.42292 7:-1.28213 8:-1.21357 9:-1.26438 10:-1.28468 
0 -10 -10 -10 -0 -0 -0 -0 -0 -0 1:-0.7594 2:-0.67475 3:1.45328 4:-0.74103 5:-0.78478 6:-0.70568 7:-0.91507 8:-0.9365 9:-0.78542 10:-0.92549 
0 -10 -10 -10 -10 -0 -0 -0 -0 -0 1:-0.7594 2:-0.67475 3:1.45328 4:-0.74103 5:-0.63363 6:-0.4666 7:-1.03437 8:-1.03336 9:-1.13666 10:-0.86443 
0 -10 -10 -10 -10 -10 -0 -0 -0 -0 1:1.31652 2:-0.67475 3:-0.68794 4:0.34147 5:0.07173 6:-0.34706 7:-0.32982 8:-0.25846 9:-0.23805 10:-0.38671 
10 10 -0 -0 -0 -0 -0 -0 -0 -0 1:-0.7594 2:-0.67475 3:1.45328 4:-2.03169 5:-2.09474 6:-1.78154 7:-1.50746 8:-1.45685 9:-1.47876 10:-1.50019 
0 -10 -10 -10 -0 -0 -0 -0 -0 -0 1:-0.7594 2:-0.67475 3:1.45328 4:-0.53285 5:-0.58325 6:-0.70568 7:-0.73664 8:-0.66168 9:-0.74437 10:-0.72794 
10 -0 -10 -0 -0 -0 -0 -0 -0 -0 1:-0.7594 2:-0.67475 3:1.45328 4:-1.0741 5:-1.13746 6:-0.94476 7:-1.09248 8:-0.98831 9:-1.08192 10:-1.12664 
0 -10 -10 -10 -10 -10 -10 -10 -0 -0 1:1.31652 2:-0.67475 3:-0.68794 4:-0.8243 5:-0.78478 6:-1.42292 7:-0.95382 8:-1.01534 9:-0.8949 10:-0.81773 
10 -0 -10 -0 -0 -0 -0 -0 -0 -0 1:-0.7594 2:-0.67475 3:1.45328 4:-1.03247 5:-0.98631 6:-0.94476 7:-1.43099 8:-1.14149 9:-0.99981 10:-1.10509 
10 10 -0 -0 -0 -0 -0 -0 -0 -0 1:-0.7594 2:-0.67475 3:1.45328 4:-1.69862 5:-1.69167 6:-1.54246 7:-1.33617 8:-1.27664 9:-1.32367 10:-1.35652 
10 10 -0 -0 -0 -0 -0 -0 -0 -0 1:-0.7594 2:-0.67475 3:1.45328 4:-2.07333 5:-2.09474 6:-1.54246 7:-1.5146 8:-1.48163 9:-1.4742 10:-1.50019 
0 -10 -10 -10 -10 -10 -0 -0 -0 -0 1:-0.7594 2:1.48167 3:-0.68794 4:-1.15737 5:-1.03669 6:-0.82522 7:-1.01397 8:-1.00408 9:-0.96788 10:-0.99733 
0 -10 -10 -10 -10 -10 -10 -10 -0 -10 1:-0.7594 2:-0.67475 3:1.45328 4:-0.15815 5:-0.18018 6:1.08742 7:-0.44096 8:-0.41614 9:-0.35209 10:-0.4801 
10 10 -0 -0 -0 -0 -0 -0 -0 -0 1:-0.7594 2:-0.67475 3:1.45328 4:-1.53208 5:-1.43976 6:-1.662 7:-1.31272 8:-1.33746 9:-1.28718 10:-1.21284 
0 -10 -10 -10 -0 -0 -0 -0 -0 -0 1:-0.7594 2:-0.67475 3:1.45328 4:-0.69939 5:-0.53286 6:-0.4666 7:-0.68057 8:-0.57833 9:-0.64402 10:-0.81773 
0 -10 -10 -10 -10 -10 -10 -0 -0 -0 1:-0.7594 2:1.48167 3:-0.68794 4:-0.57449 5:-0.58325 6:-0.4666 7:-0.76111 8:-0.74277 9:-0.69419 10:-0.72794 
0 -10 -10 -10 -0 -0 -0 -0 -0 -0 1:-0.7594 2:-0.67475 3:1.45328 4:-0.19978 5:-0.28095 6:-0.70568 7:-0.68261 8:-0.6369 9:-0.82648 10:-0.76386 
0 -10 -10 -10 -10 -10 -0 -0 -0 -0 1:1.31652 2:-0.67475 3:-0.68794 4:0.00839 5:0.07173 6:-0.10798 7:-0.06983 8:0.15603 9:0.07669 10:-0.26458 
0 -10 -10 -10 -10 -10 -10 -0 -0 -0 1:-0.7594 2:1.48167 3:-0.68794 4:0.2582 5:0.1725 6:0.01156 7:0.27378 8:0.36327 9:0.39599 10:0.0084 
0 -10 -10 -10 -0 -0 -0 -0 -0 -0 1:-0.7594 2:-0.67475 3:1.45328 4:-0.69939 5:-0.73439 6:-0.58614 7:-0.83045 8:-0.83963 9:-0.94964 10:-0.90394 
0 -10 -10 -10 -0 -0 -0 -0 -0 -0 1:-0.7594 2:-0.67475 3:1.45328 4:-0.49122 5:-0.53286 6:-0.82522 7:-0.78864 8:-0.6797 9:-0.75805 10:-0.86443 
0 -10 -10 -10 -0 -0 -0 -0 -0 -0 1:-0.7594 2:-0.67475 3:1.45328 4:-0.24141 5:-0.28095 6:-0.4666 7:-0.6459 8:-0.56932 9:-0.54823 10:-0.73871 
0 -10 -10 -10 -10 -0 -0 -0 -0 -0 1:1.31652 2:-0.67475 3:-0.68794 4:0.17493 5:0.12212 6:-0.4666 7:-0.08614 8:0.19658 9:0.0402 10:-0.49447 
10 10 -0 -0 -0 -0 -0 -0 -0 -0 1:-0.7594 2:-0.67475 3:1.45328 4:-1.40718 5:-1.54052 6:-1.42292 7:-1.30864 8:-1.26763 9:-1.18683 10:-1.29905 
0 -10 -10 -10 -0 -0 -0 -0 -0 -0 1:-0.7594 2:-0.67475 3:1.45328 4:-0.61612 5:-0.73439 6:-1.0643 7:-0.97523 8:-0.89144 9:-1.07736 10:-0.86443 
10 10 -0 -0 -0 -0 -0 -0 -0 -0 1:-0.7594 2:-0.67475 3:1.45328 4:-1.61535 5:-1.84282 6:-1.54246 7:-1.30864 8:-1.1933 9:-1.28718 10:-1.4104 
0 -10 -10 -10 -0 -0 -0 -0 -0 -0 1:-0.7594 2:-0.67475 3:1.45328 4:-0.57449 5:-0.58325 6:-0.82522 7:-0.78355 8:-0.65942 9:-0.67139 10:-0.91472 
0 -10 -10 -10 -10 -0 -0 -0 -0 -0 1:-0.7594 2:-0.67475 3:1.45328 4:-0.03324 5:-0.1298 6:0.1311 7:-0.11979 8:0.29119 9:-0.35209 10:-0.35438 
10 10 -0 -0 -0 -0 -0 -0 -0 -0 1:-0.7594 2:-0.67475 3:1.45328 4:-1.28227 5:-1.38937 6:-1.18384 7:-1.3117 8:-1.30367 9:-1.25981 10:-1.24876 
0 -10 -10 -10 -0 -0 -0 -0 -0 -0 1:-0.7594 2:-0.67475 3:1.45328 4:-0.74103 5:-0.73439 6:-1.0643 7:-1.08229 8:-1.12797 9:-1.11841 10:-0.88957 
0 -10 -10 -10 -10 -10 -0 -0 -0 -0 1:-0.7594 2:1.48167 3:-0.68794 4:0.21656 5:0.1725 6:0.01156 7:0.25135 8:0.58628 9:0.12687 10:-0.14605 
0 -10 -10 -10 -10 -10 -10 -10 -0 -0 1:1.31652 2:-0.67475 3:-0.68794 4:-0.57449 5:-0.33133 6:-0.34706 7:-0.703 8:-0.64816 9:-0.717 10:-0.53038 
10 -0 -10 -0 -0 -0 -0 -0 -0 -0 1:-0.7594 2:-0.67475 3:1.45328 4:-1.11574 5:-0.93593 6:-1.18384 7:-1.05884 8:-0.95677 9:-1.19139 10:-1.06917 
10 -0 -10 -0 -0 -0 -0 -0 -0 -0 1:-0.7594 2:-0.67475 3:1.45328 4:-1.0741 5:-0.98631 6:-1.0643 7:-1.0517 8:-1.02885 9:-0.99069 10:-1.04762 
0 -10 -10 -0 -0 -0 -0 -0 -0 -0 1:-0.7594 2:-0.67475 3:1.45328 4:-0.78266 5:-0.88554 6:-0.94476 7:-0.90386 8:-0.75403 9:-0.96788 10:-0.99733 
0 -10 -10 -10 -10 -10 -0 -0 -0 -0 1:1.31652 2:-0.67475 3:-0.68794 4:0.29983 5:0.42441 6:0.01156 7:0.14531 8:0.50744 9:0.01283 10:-0.14964 
0 -10 -10 -10 -0 -0 -0 -0 -0 -0 1:-0.7594 2:-0.67475 3:1.45328 4:-0.32468 5:-0.38171 6:-0.94476 7:-0.64386 8:-0.63239 9:-0.66683 10:-0.78182 
0 -10 -10 -10 -10 -10 -10 -0.7612057199574004 -0 -0 1:-0.7594 2:-0.67475 3:1.45328 4:-0.44959 5:-0.53286 6:0.1311 7:-0.77539 8:-0.91622 9:-0.717 10:-0.8321 
0 -10 -10 -10 -0 -0 -0 -0 -0 -0 1:-0.7594 2:-0.67475 3:1.45328 4:-0.32468 5:-0.38171 6:-0.58614 7:-0.391 8:0.09295 9:-0.42963 10:-0.79618 
0 -10 -10 -10 -0 -0 -0 -0 -0 -0 1:-0.7594 2:-0.67475 3:1.45328 4:-0.86593 5:-0.83516 6:-0.70568 7:-1.02723 8:-1.05814 9:-0.95876 10:-0.97937 
0 -10 -10 -10 -10 -0 -0 -0 -0 -0 1:-0.7594 2:1.48167 3:-0.68794 4:-0.11651 5:-0.33133 6:-0.70568 7:-0.50621 8:-0.32829 9:-0.57104 10:-0.65251 
0 -10 -10 -10 -0 -0 -0 -0 -0 -0 1:-0.7594 2:-0.67475 3:1.45328 4:-0.40795 5:-0.4321 6:-0.82522 7:-0.8386 8:-0.87793 9:-0.74437 10:-0.80337 
0 -10 -10 -10 -10 -10 -10 -0 -0 -10 1:1.31652 2:-0.67475 3:-0.68794 4:-0.15815 5:-0.07942 6:0.25064 7:-0.10959 8:-0.06698 9:-0.21524 10:-0.38671 
0 -10 -10 -10 -0 -0 -0 -0 -0 -0 1:-0.7594 2:-0.67475 3:1.45328 4:-0.61612 5:-0.73439 6:-0.58614 7:-0.88754 8:-0.74052 9:-0.99981 10:-0.92549 
10 10 -0 -0 -0 -0 -0 -0 -0 -0 1:-0.7594 2:-0.67475 3:1.45328 4:-1.69862 5:-1.79244 6:-1.90108 7:-1.42691 8:-1.34197 9:-1.39666 10:-1.46068 
0 -10 -10 -10 -10 -10 -10 -10 -10 -0 1:-0.7594 2:1.48167 3:-0.68794 4:-0.53285 5:-0.33133 6:-0.4666 7:-0.6877 8:-0.62563 9:-0.84472 10:-0.49447 
0 -10 -10 -10 -10 -10 -0 -0 -0 -0 1:-0.7594 2:-0.67475 3:1.45328 4:-0.61612 5:-0.58325 6:-0.10798 7:-0.68261 8:-0.62563 9:-0.78542 10:-0.70639 
0 -10 -10 -10 -10 -0 -0 -0 -0 -0 1:-0.7594 2:-0.67475 3:1.45328 4:-0.40795 5:-0.58325 6:-0.4666 7:-0.68974 8:-0.70222 9:-0.46156 10:-0.7459 
0 -10 -10 -10 -10 -0 -0 -0 -0 -0 1:-0.7594 2:1.48167 3:-0.68794 4:0.00839 5:0.02135 6:-0.58614 7:-0.11061 8:0.25514 9:-0.1605 10:-0.42263 
0 -10 -10 -10 -10 -10 -0 -0 -0 -0 1:1.31652 2:-0.67475 3:-0.68794 4:-0.11651 5:-0.02903 6:-0.34706 7:-0.27782 8:-0.14582 9:-0.23349 10:-0.41904 
10 -0 -10 -0 -0 -0 -0 -0 -0 -0 1:-0.7594 2:-0.67475 3:1.45328 4:-1.0741 5:-0.98631 6:-1.30338 7:-1.04354 8:-0.92974 9:-1.18683 10:-1.04402 
10 -10 -10 -10 -10 -10 -10 -10 -0 -0 1:1.31652 2:-0.67475 3:-0.68794 4:-1.44881 5:-1.43976 6:-1.18384 7:-1.28825 8:-1.29016 9:-1.31455 10:-1.16256 
10 10 10 -0 -0 -0 -0 -0 -0 -0 1:-0.7594 2:-0.67475 3:1.45328 4:-0.99083 5:-1.08708 6:-1.30338 7:-1.07107 8:-0.94325 9:-1.18683 10:-1.08353 
0 10 10 -0 -0 -0 -0 -0 -0 -0 1:-0.7594 2:-0.67475 3:1.45328 4:-0.8243 5:-1.08708 6:-1.0643 7:-0.97319 8:-0.9838 9:-0.94051 10:-0.85365 
0 10 -10 -10 -10 -10 -0 -0 -0 -0 1:-0.7594 2:1.48167 3:-0.68794 4:-0.61612 5:-0.53286 6:-0.82522 7:-0.62449 8:-0.5513 9:-0.58472 10:-0.67406 
0 0 -10 -10 -10 -10 -10 -10 -10 -0 1:-0.7594 2:1.48167 3:-0.68794 4:-0.19978 5:-0.07942 6:0.01156 7:-0.34104 8:-0.46344 9:-0.04647 10:-0.13528 
0 10 -10 -10 -10 -10 -0 -0 -0 -0 1:-0.7594 2:1.48167 3:-0.68794 4:-1.03247 5:-0.88554 6:-0.70568 7:-0.97013 8:-0.98605 9:-0.74893 10:-0.99733 
10 10 10 -0 -0 -0 -0 -0 -0 -0 1:-0.7594 2:-0.67475 3:1.45328 4:-1.15737 5:-1.18784 6:-1.30338 7:-1.17915 8:-1.11445 9:-1.09104 10:-1.141 
0 0 -10 -10 -10 -10 -10 -7.723730010146272 -8.816954204370669 -0 1:-0.7594 2:1.48167 3:-0.68794 4:-0.03324 5:-0.02903 6:-0.58614 7:-0.10755 8:-0.17736 9:0.03564 10:-0.13528 
0 10 -10 -10 -10 -10 -10 -10 -0 -0 1:-0.7594 2:1.48167 3:-0.68794 4:-0.90756 5:-1.03669 6:-0.22752 7:-1.03743 8:-1.03111 9:-0.95876 10:-0.96141 
10 10 -10 -10 -10 -10 -10 -1.687978934568615 -0 -0 1:1.31652 2:-0.67475 3:-0.68794 4:-1.44881 5:-1.33899 6:-0.70568 7:-1.0935 8:-1.06715 9:-1.06823 10:-1.06557 
0 10 -10 -10 -10 -10 -10 -10 -3.293740476594336 -0 1:1.31652 2:-0.67475 3:-0.68794 4:-1.36554 5:-1.13746 6:-0.82522 7:-1.19852 8:-1.22934 9:-1.16402 10:-1.03325 
10 10 10 -0 -0 -0 -0 -0 -0 -0 1:-0.7594 2:-0.67475 3:1.45328 4:-1.36554 5:-1.28861 6:-1.18384 7:-1.23013 8:-1.22033 9:-1.28262 10:-1.06917 
0 0 -10 -10 -10 -10 -10 -0 -0 -0 1:-0.7594 2:1.48167 3:-0.68794 4:0.71618 5:0.87786 6:1.08742 7:0.66123 8:0.79577 9:1.00267 10:0.04432 
0 0 -10 -10 -10 -10 -10 -10 -10 -0 1:1.31652 2:-0.67475 3:-0.68794 4:-0.44959 5:-0.28095 6:0.1311 7:-0.49398 8:-0.54454 9:-0.33384 10:-0.38671 
10 10 10 -0 -0 -0 -0 -0 -0 -0 1:-0.7594 2:-0.67475 3:1.45328 4:-1.57372 5:-1.49014 6:-0.94476 7:-1.29844 8:-1.26538 9:-1.11385 10:-1.21284 
0 0 -10 -10 -10 -10 -10 -10 -0 -0 1:1.31652 2:-0.67475 3:-0.68794 4:-0.44959 5:-0.33133 6:-0.4666 7:-0.50621 8:-0.42064 9:-0.79455 10:-0.50165 
0 0 -10 -10 -10 -10 -10 -10 -10 -0 1:1.31652 2:-0.67475 3:-0.68794 4:-0.15815 5:0.32365 6:0.01156 7:-0.00253 8:-0.0805 9:0.04476 10:0.00122 
0 0 -10 -10 -10 -10 -10 -10 -10 -0 1:-0.7594 2:1.48167 3:-0.68794 4:0.21656 5:0.22288 6:-0.34706 7:0.19221 8:0.19883 9:-0.05103 10:0.3173 
10 10 10 -0 -0 -0 -0 -0 -0 -0 1:-0.7594 2:-0.67475 3:1.45328 4:-1.74025 5:-1.79244 6:-1.662 7:-1.39632 8:-1.38026 9:-1.36929 10:-1.42836 
0 10 -10 -10 -10 -0 -0 -0 -0 -0 1:1.31652 2:-0.67475 3:-0.68794 4:-0.44959 5:-0.4321 6:-0.4666 7:-0.44198 8:-0.14582 9:-0.2791 10:-0.70998 
0 0 -10 -10 -10 -10 -0 -0 -0 -9.888088914407234 1:1.31652 2:-0.67475 3:-0.68794 4:-0.24141 5:-0.1298 6:-0.10798 7:-0.39814 8:-0.2517 9:-0.46612 10:-0.64173 
0 0 -10 -10 -10 -10 -10 -0 -0 -0 1:1.31652 2:-0.67475 3:-0.68794 4:0.09166 5:0.27326 6:0.01156 7:0.09229 8:0.06367 9:0.44161 10:-0.13887 
0 0 -10 -10 -10 -10 -10 -10 -10 -5.642935976745247 1:1.31652 2:-0.67475 3:-0.68794 4:0.54964 5:0.62595 6:0.48972 7:0.7693 8:0.53898 9:0.56477 10:0.50408 
0 0 -10 -10 -10 -10 -0 -0 -0 -0 1:-0.7594 2:1.48167 3:-0.68794 4:0.54964 5:0.4748 6:0.1311 7:0.4777 8:0.70342 9:0.58301 10:0.08024 
0 0 -10 -10 -10 -10 -10 -10 -0 -0 1:1.31652 2:-0.67475 3:-0.68794 4:1.38233 5:1.18016 6:0.84834 7:1.77769 8:2.10005 9:1.65495 10:1.19372 
0 10 -0 -10 -10 -0 -0 -0 -0 -0 1:-0.7594 2:-0.67475 3:1.45328 4:-0.61612 5:-0.4321 6:-0.34706 7:-0.74786 8:-0.65717 9:-0.74893 10:-0.77104 
0 0 -10 -10 -10 -0 -0 -0 -0 -0 1:-0.7594 2:-0.67475 3:1.45328 4:-0.11651 5:-0.02903 6:-0.34706 7:-0.30433 8:-0.05797 9:-0.37489 10:-0.40826 
0 10 -10 -10 -0 -0 -0 -0 -0 -0 1:-0.7594 2:-0.67475 3:1.45328 4:-0.07488 5:-0.23057 6:-0.34706 7:-0.443 8:-0.18862 9:-0.49349 10:-0.63814 
0 0 -10 -10 -10 -0 -0 -0 -0 -0 1:-0.7594 2:-0.67475 3:1.45328 4:0.00839 5:-0.07942 6:-0.22752 7:-0.37367 8:-0.15483 9:-0.51174 10:-0.49447 
0 10 -10 -10 -0 -0 -0 -0 -0 -0 1:-0.7594 2:-0.67475 3:1.45328 4:0.00839 5:-0.1298 6:-0.4666 7:-0.45014 8:-0.28098 9:-0.37489 10:-0.70639 
0 0 -10 -10 -10 -10 -0 -0 -0 -0 1:-0.7594 2:-0.67475 3:1.45328 4:0.05003 5:-0.07942 6:-0.34706 7:-0.43178 8:-0.36208 9:-0.48893 10:-0.35079 
0 0 -10 -10 -10 -10 -0 -0 -0 -0 1:1.31652 2:-0.67475 3:-0.68794 4:0.29983 5:0.07173 6:0.1311 7:0.04743 8:0.31822 9:0.07213 10:-0.24303 
0 0 -10 -10 -10 -10 -0 -0 -0 -0 1:-0.7594 2:1.48167 3:-0.68794 4:0.63291 5:0.57556 6:0.25064 7:0.55825 8:0.83857 9:0.74266 10:0.08024 
0 8.959930925693033 -10 -10 -10 -10 -0 -0 -0 -0 1:1.31652 2:-0.67475 3:-0.68794 4:0.79945 5:0.62595 6:-0.10798 7:0.38899 8:0.7755 9:0.1816 10:0.06228 
0 0 -10 -10 -10 -10 -8.267744951195997 -0 -0 -0 1:-0.7594 2:1.48167 3:-0.68794 4:0.79945 5:0.72671 6:0.48972 7:0.57864 8:0.91967 9:0.58301 10:0.30293 
0 0 -10 -10 -10 -10 -10 -0 -0 -0 1:1.31652 2:-0.67475 3:-0.68794 4:0.84108 5:0.72671 6:1.08742 7:0.77032 8:1.02554 9:0.9981 10:0.33885 
10 10 10 -0 -0 -0 -0 -0 -0 -0 1:-0.7594 2:-0.67475 3:1.45328 4:-1.44881 5:-1.54052 6:-1.18384 7:-1.32597 8:-1.23384 9:-1.36929 10:-1.33856 
10 10 10 -0 -0 -0 -0 -0 -0 -0 1:-0.7594 2:-0.67475 3:1.45328 4:-1.15737 5:-1.28861 6:-1.30338 7:-1.24644 8:-1.18203 9:-1.30087 10:-1.23439 
10 10 10 -0 -0 -0 -0 -0 -0 -0 1:-0.7594 2:-0.67475 3:1.45328 4:-1.0741 5:-1.13746 6:-1.0643 7:-1.13429 8:-1.10094 9:-1.07736 10:-1.10509 
3.899779651046948 10 10 -0 -0 -0 -0 -0 -0 -0 1:-0.7594 2:-0.67475 3:1.45328 4:-0.57449 5:-0.78478 6:-0.94476 7:-0.93139 8:-0.00616 9:-0.94051 10:-0.92549 
0 10 -0 -10 -0 -0 -0 -0 -0 -0 1:-0.7594 2:-0.67475 3:1.45328 4:-0.44959 5:-0.4321 6:-0.94476 7:-0.85186 8:-0.83062 9:-0.86753 10:-0.7459 
0 10 -10 -10 -10 -0 -0 -0 -0 -0 1:-0.7594 2:-0.67475 3:1.45328 4:-0.15815 5:-0.1298 6:-0.82522 7:-0.56637 8:-0.50174 9:-0.70788 10:-0.48728 
0 0 -10 -10 -10 -10 -10 -10 -0 -0 1:-0.7594 2:1.48167 3:-0.68794 4:0.46637 5:0.37403 6:0.25064 7:0.05966 8:0.18306 9:-0.22437 10:0.10179 
0 0 -10 -10 -10 -10 -10 -10 -0 -0 1:1.31652 2:-0.67475 3:-0.68794 4:0.50801 5:0.42441 6:0.96788 7:-0.05963 8:-0.10528 9:0.04476 10:-0.01315 
0 0 -10 -10 -10 -10 -10 -0 -0 -0 1:1.31652 2:-0.67475 3:-0.68794 4:0.42474 5:0.52518 6:0.60926 7:0.17692 8:0.18531 9:0.60126 10:-0.00238 
0 0 -10 -10 -10 -10 -10 -0 -0 -0 1:1.31652 2:-0.67475 3:-0.68794 4:0.50801 5:0.4748 6:0.25064 7:0.15754 8:0.22586 9:0.45073 10:-0.0383 
0 0 -10 -10 -10 -10 -10 -0 -0 -0 1:-0.7594 2:1.48167 3:-0.68794 4:0.54964 5:0.52518 6:0.1311 7:0.32986 8:0.42184 9:0.36406 10:0.25983 
0 0 -10 -10 -10 -10 -10 -0 -0 -0 1:1.31652 2:-0.67475 3:-0.68794 4:0.63291 5:0.4748 6:0.37018 7:0.23707 8:0.3475 9:0.25459 10:0.08024 
0 10 -10 -10 -10 -10 -10 -4.705349329017427 -10 -0 1:-0.7594 2:-0.67475 3:1.45328 4:-0.40795 5:-0.48248 6:0.1311 7:-0.40018 8:-0.34631 9:-0.3977 10:-0.35079 
0 10 -0 -10 -10 -0 -0 -0 -0 -0 1:-0.7594 2:-0.67475 3:1.45328 4:-0.40795 5:-0.48248 6:-0.34706 7:-0.68974 8:-0.69547 9:-0.457 10:-0.81773 
0 0 -10 -10 -10 -10 -0 -0 -0 -0 1:-0.7594 2:-0.67475 3:1.45328 4:-0.24141 5:-0.07942 6:-0.82522 7:-0.46237 8:-0.49048 9:-0.49349 10:-0.35079 
0 0 -10 -10 -10 -10 -10 -0 -0 -0 1:-0.7594 2:-0.67475 3:1.45328 4:-0.07488 5:-0.18018 6:-0.34706 7:-0.52661 8:-0.54679 9:-0.49349 10:-0.38671 
0 0 -10 -10 -10 -10 -10 -10 -10 -10 1:1.31652 2:-0.67475 3:-0.68794 4:0.00839 5:0.07173 6:0.1311 7:0.03315 8:-0.03094 9:-0.15594 10:0.34963 
0 0 -10 -10 -10 -10 -0 -0 -0 -0 1:-0.7594 2:-0.67475 3:1.45328 4:0.00839 5:-0.28095 6:-0.10798 7:-0.43586 8:-0.44317 9:-0.197 10:-0.45855 
0 0 -10 -10 -10 -0 -0 -0 -0 -0 1:-0.7594 2:-0.67475 3:1.45328 4:0.17493 5:0.12212 6:-0.34706 7:-0.22786 8:-0.00616 9:-0.62577 10:-0.13528 
0 0 -10 -10 -10 -10 -10 -0 -0 -0 1:-0.7594 2:-0.67475 3:1.45328 4:0.21656 5:0.1725 6:0.25064 7:-0.12692 8:-0.09176 9:-0.04191 10:-0.20711 
0 0 -10 -10 -10 -10 -10 -10 -10 -0 1:1.31652 2:-0.67475 3:-0.68794 4:0.42474 5:0.4748 6:0.60926 7:0.07802 8:0.07719 9:-0.00085 10:0.20954 
0 0 -10 -10 -10 -10 -10 -10 -10 -10 1:-0.7594 2:1.48167 3:-0.68794 4:0.42474 5:0.57556 6:1.3265 7:0.34209 8:0.25965 9:0.60582 10:1.66067 
0 0 -10 -10 -10 -10 -0 -0 -0 -0 1:-0.7594 2:1.48167 3:-0.68794 4:0.67454 5:0.72671 6:0.01156 7:0.33088 8:0.5142 9:0.49178 10:0.0084 
0 0 -10 -10 -10 -10 -10 -10 -10 -10 1:-0.7594 2:1.48167 3:-0.68794 4:0.88272 5:0.92824 6:0.96788 7:0.74993 8:0.69666 9:0.47354 10:1.15421 
0 2.735784542580041 -10 -10 -10 -10 -4.777896211338094 -0 -8.732944704279248 -0 1:-0.7594 2:-0.67475 3:1.45328 4:-0.57449 5:-0.83516 6:-0.10798 7:-0.01783 8:0.18531 9:-0.08296 10:-0.19993 
0 10 -7.573421740862341 -10 -10 -10 -10 -10 -10 -0 1:-0.7594 2:-0.67475 3:1.45328 4:-0.32468 5:-0.4321 6:-0.82522 7:-0.62857 8:-0.74052 9:-0.52542 10:-0.40826 
0 0 -10 -10 -10 -10 -10 -10 -10 -10 1:-0.7594 2:1.48167 3:-0.68794 4:-0.28305 5:-0.53286 6:0.48972 7:0.10351 8:-0.04896 9:0.31389 10:0.31371 
0 0 -10 -10 -10 -10 -10 -0 -0 -3.468494807758605 1:-0.7594 2:-0.67475 3:1.45328 4:0.17493 5:0.12212 6:0.60926 7:0.13205 8:0.28893 9:0.35494 10:-0.07781 
0 10 -10 -10 -10 -10 -10 -0 -0 -0 1:-0.7594 2:-0.67475 3:1.45328 4:-0.24141 5:-0.28095 6:-0.10798 7:-0.651 8:-0.68871 9:-0.58472 10:-0.53038 
0 0 -10 -10 -10 -10 -10 -0 -0 -0 1:-0.7594 2:-0.67475 3:1.45328 4:-0.15815 5:-0.07942 6:0.1311 7:-0.25335 8:-0.11429 9:-0.34752 10:-0.22867 
0 0 -10 -10 -10 -0 -0 -0 -0 -0 1:1.31652 2:-0.67475 3:-0.68794 4:-0.07488 5:-0.23057 6:-0.70568 7:-0.51029 8:-0.47921 9:-0.18787 10:-0.70998 
0 0.4205485488440683 -10 -10 -10 -0 -10 -0 -0 -0 1:-0.7594 2:-0.67475 3:1.45328 4:-0.03324 5:0.02135 6:-0.70568 7:-0.63264 8:-0.64365 9:-0.81279 10:-0.39389 
0 0 -10 -10 -10 -10 -10 -10 -0 -0 1:-0.7594 2:1.48167 3:-0.68794 4:0.71618 5:0.52518 6:0.37018 7:0.26154 8:0.29794 9:0.15424 10:0.18799 
0 10 10 -10 -0 -0 -0 -0 -0 -0 1:-0.7594 2:-0.67475 3:1.45328 4:-0.90756 5:-0.83516 6:-0.70568 7:-1.04558 8:-0.99506 9:-0.92227 10:-1.05121 
0 10 -0 -10 -0 -0 -0 -0 -0 -0 1:-0.7594 2:-0.67475 3:1.45328 4:-0.40795 5:-0.4321 6:-0.4666 7:-0.63264 8:-0.41163 9:-0.64858 10:-0.73512 
0 0 -10 -10 -10 -10 -10 -10 -0 -0 1:1.31652 2:-0.67475 3:-0.68794 4:-0.32468 5:-0.18018 6:-0.10798 7:-0.43178 8:-0.49273 9:-0.42051 10:-0.54116 
0 0 -10 -10 -10 -10 -0 -0 -0 -0 1:1.31652 2:-0.67475 3:-0.68794 4:0.00839 5:-0.02903 6:-0.22752 7:-0.22481 8:-0.14808 9:0.15424 10:-0.45855 
0 0 -10 -10 -10 -10 -10 -10 -10 -0 1:1.31652 2:-0.67475 3:-0.68794 4:-0.44959 5:-0.33133 6:-0.58614 7:-0.82025 8:-0.85991 9:-0.95876 10:-0.63814 
0 10 -10 -10 -10 -10 -10 -10 -0 -0 1:1.31652 2:-0.67475 3:-0.68794 4:-0.90756 5:-0.98631 6:-1.18384 7:-1.02825 8:-1.03111 9:-0.977 10:-0.88957 
0 10 -10 -10 -10 -0 -0 -0 -0 -0 1:-0.7594 2:-0.67475 3:1.45328 4:-0.24141 5:-0.23057 6:-0.34706 7:-0.49704 8:-0.37784 9:-0.52086 10:-0.53038 
10 10 10 -0 -0 -0 -0 -0 -0 -0 1:-0.7594 2:-0.67475 3:1.45328 4:-1.74025 5:-1.69167 6:-1.662 7:-1.4106 8:-1.37351 9:-1.36017 10:-1.42836 
0 10 -10 -10 -10 -10 -0 -0 -0 -0 1:-0.7594 2:1.48167 3:-0.68794 4:-0.78266 5:-0.68401 6:-0.70568 7:-0.911 8:-0.92523 9:-0.7763 10:-0.93268 
10 10 10 -0 -0 -0 -0 -0 -0 -0 1:-0.7594 2:-0.67475 3:1.45328 4:-1.65698 5:-2.09474 6:-1.42292 7:-1.48707 8:-1.44109 9:-1.44227 10:-1.48583 
0 0 -10 -10 -10 -10 -10 -10 -10 -8.152089960702419 1:-0.7594 2:1.48167 3:-0.68794 4:-0.44959 5:-0.53286 6:0.96788 7:-0.79068 8:-0.93199 9:-0.58472 10:-0.7459 
0 10 -10 -10 -10 -0 -0 -0 -0 -0 1:1.31652 2:-0.67475 3:-0.68794 4:-1.11574 5:-1.23822 6:-1.0643 7:-1.13735 8:-1.12346 9:-1.10016 10:-1.141 
10 10 10 -0 -0 -0 -0 -0 -0 -0 1:-0.7594 2:-0.67475 3:1.45328 4:-1.40718 5:-1.49014 6:-1.18384 7:-1.29742 8:-1.27214 9:-1.30087 10:-1.24876 
0 0 -10 -10 -10 -10 -10 -10 -10 -0 1:-0.7594 2:1.48167 3:-0.68794 4:-0.49122 5:-0.58325 6:-0.10798 7:-0.41241 8:-0.45218 9:-0.32928 10:-0.45855 
0 0 -10 -10 -10 -10 -2.989352206976359 -0 -0 -0 1:-0.7594 2:1.48167 3:-0.68794 4:0.63291 5:0.52518 6:0.25064 7:0.82844 8:1.09537 9:0.85214 10:0.36759 
0 0 -10 -10 -10 -10 -0 -0 -0 -0 1:1.31652 2:-0.67475 3:-0.68794 4:0.71618 5:0.72671 6:0.25064 7:0.65409 8:0.92192 9:0.85214 10:0.18081 
0 0 -10 -10 -10 -10 -10 -0 -0 -0 1:1.31652 2:-0.67475 3:-0.68794 4:0.75781 5:0.62595 6:0.37018 7:0.75707 8:0.67188 9:1.27179 10:0.38195 
0 10 -0 -10 -0 -0 -0 -0 -0 -0 1:-0.7594 2:-0.67475 3:1.45328 4:-0.28305 5:-0.33133 6:-0.34706 7:-0.57963 8:-0.36208 9:-0.5984 10:-0.78182 
0 0 -10 -10 -10 -10 -5.875123995277868 -0 -0 -0 1:1.31652 2:-0.67475 3:-0.68794 4:0.46637 5:0.4748 6:-0.22752 7:0.04743 8:0.22811 9:-0.07384 10:-0.09936 
0 0 -10 -10 -10 -10 -10 -0 -0 -0 1:-0.7594 2:1.48167 3:-0.68794 4:0.59127 5:0.57556 6:0.25064 7:0.55417 8:0.82055 9:-0.13314 10:0.18799 
10 10 0.8074938377069927 -0.02014861979237478 -0 -0 -0 -0 -0 -6.251213129409327 1:-0.7594 2:-0.67475 3:1.45328 4:-0.99083 5:-0.98631 6:-0.70568 7:0.1657 8:0.25514 9:0.24546 10:-1.00092 
6.879522845461485 10 10 -0 -0 -0 -0 -0 -0 -0 1:-0.7594 2:-0.67475 3:1.45328 4:-0.9492 5:-0.93593 6:-0.94476 7:-1.07821 8:-1.06039 9:-1.12297 10:-0.99733 
0 10 -10 -10 -10 -0 -0 -0 -0 -0 1:1.31652 2:-0.67475 3:-0.68794 4:-0.61612 5:-0.83516 6:-0.58614 7:-0.81209 8:-0.61212 9:-0.93139 10:-0.88598 
0 10 10 -10 -0 -0 -0 -0 -0 -0 1:-0.7594 2:-0.67475 3:1.45328 4:-0.53285 5:-0.58325 6:-0.94476 7:-0.72951 8:-0.48372 9:-0.94507 10:-0.8321 
0 0 -10 -10 -10 -10 -0 -0 -0 -0 1:-0.7594 2:1.48167 3:-0.68794 4:0.50801 5:0.4748 6:-0.22752 7:0.09535 8:0.23262 9:0.23634 10:-0.09936 
0 0 -10 -10 -10 -10 -0 -0 -0 -0 1:-0.7594 2:-0.67475 3:1.45328 4:-0.15815 5:-0.07942 6:-0.34706 7:-0.547 8:-0.60311 9:-0.3384 10:-0.49447 
0 0 -10 -10 -10 -10 -5.35849844898256 -0 -0 -0 1:-0.7594 2:-0.67475 3:1.45328 4:0.29983 5:0.22288 6:-0.22752 7:-0.20543 8:-0.10753 9:-0.3384 10:-0.15324 
0 0 -10 -10 -10 -10 -0 -0 -0 -0 1:-0.7594 2:1.48167 3:-0.68794 4:0.42474 5:0.1725 6:0.25064 7:0.09739 8:0.43085 9:-0.00542 10:-0.07781 
0 0 -10 -10 -10 -10 -0 -0 -0 -0 1:-0.7594 2:-0.67475 3:1.45328 4:0.09166 5:-0.07942 6:-0.10798 7:-0.10959 8:0.03889 9:0.25003 10:-0.23944 
0 0 -10 -10 -10 -10 -10 -0 -0 -0 1:1.31652 2:-0.67475 3:-0.68794 4:0.59127 5:0.77709 6:0.25064 7:0.5195 8:0.771 9:0.45985 10:0.26701 
10 10 10 -0 -0 -0 -0 -0 -0 -0 1:-0.7594 2:-0.67475 3:1.45328 4:-1.24064 5:-1.23822 6:-1.18384 7:-1.20668 8:-1.14149 9:-1.28718 10:-1.141 
10 10 10 -0 -0 -0 -0 -0 -0 -0 1:-0.7594 2:-0.67475 3:1.45328 4:-1.11574 5:-1.28861 6:-1.18384 7:-1.25154 8:-1.23835 9:-1.33736 10:-1.14819 
0 0 10 5.246969728040061 -10 -0 -0 -0 -0 -0 1:-0.7594 2:-0.67475 3:1.45328 4:0.00839 5:-0.07942 6:-0.70568 7:-0.41037 8:-0.26071 9:-0.49805 10:-0.42263 
0 0 10 -10 -10 -10 -0 -0 -0 -0 1:1.31652 2:-0.67475 3:-0.68794 4:-0.57449 5:-0.58325 6:-0.70568 7:-0.75602 8:-0.71799 9:-0.6349 10:-0.77822 
0 0 0 -10 -10 -10 -10 -9.090527730009306 -0 -0 1:1.31652 2:-0.67475 3:-0.68794 4:0.63291 5:0.57556 6:0.96788 7:0.74279 8:0.69891 9:1.22618 10:0.47894 
0 10 10 10 -0 -0 -0 -0 -0 -0 1:-0.7594 2:-0.67475 3:1.45328 4:-0.9492 5:-0.83516 6:-0.82522 7:-0.95382 8:-0.89595 9:-1.04086 10:-0.97578 
0 0 10 -10 -10 -10 -10 -10 -10 -0 1:1.31652 2:-0.67475 3:-0.68794 4:-0.53285 5:-0.48248 6:-0.34706 7:-0.57453 8:-0.64365 9:-0.63946 10:-0.35079 
10 10 10 10 -0 -0 -0 -0 -0 -0 1:-0.7594 2:-0.67475 3:1.45328 4:-1.49045 5:-1.23822 6:-0.94476 7:-1.23625 8:-1.22934 9:-1.11841 10:-1.17692 
10 10 10 10 -0 -0 -0 -0 -0 -0 1:-0.7594 2:-0.67475 3:1.45328 4:-1.11574 5:-1.08708 6:-0.82522 7:-1.16182 8:-1.18879 9:-1.30087 10:-1.10509 
10 10 10 10 -0 -0 -0 -0 -0 -0 1:-0.7594 2:-0.67475 3:1.45328 4:-1.44881 5:-1.28861 6:-1.54246 7:-1.29029 8:-1.24961 9:-1.28262 10:-1.25594 
0 0 0 -10 -10 -10 -10 -10 -10 -10 1:-0.7594 2:1.48167 3:-0.68794 4:0.46637 5:0.72671 6:0.96788 7:0.85801 8:0.60881 9:0.81565 10:0.94947 
0 0 10 -0 -10 -10 -0 -0 -0 -0 1:-0.7594 2:-0.67475 3:1.45328 4:-0.24141 5:-0.07942 6:0.1311 7:-0.51131 8:-0.47245 9:-0.457 10:-0.53398 
0 0 0 -10 -10 -10 -10 -10 -0 -0 1:-0.7594 2:1.48167 3:-0.68794 4:0.71618 5:0.62595 6:0.48972 7:0.50115 8:0.5998 9:0.50547 10:0.36759 
0 0 0 -10 -10 -10 -10 -10 -0 -0 1:1.31652 2:-0.67475 3:-0.68794 4:0.75781 5:0.97863 6:1.20696 7:1.17103 8:1.40624 9:1.02091 10:0.90637 
0 10 10 10 -0.4216230632861492 -0 -0 -0 -0 -0 1:-0.7594 2:-0.67475 3:1.45328 4:-0.11651 5:-0.02903 6:-0.22752 7:-0.46849 8:-0.23818 9:-0.59384 10:-0.64892 
0 10 10 -0 -10 -0 -0 -0 -0 -0 1:-0.7594 2:-0.67475 3:1.45328 4:-0.03324 5:-0.28095 6:-0.22752 7:-0.60002 8:-0.54904 9:-0.53454 10:-0.613 
0 0 0 -10 -10 -10 -10 -10 -0 -0 1:1.31652 2:-0.67475 3:-0.68794 4:0.63291 5:0.02135 6:0.1311 7:0.22484 8:0.39706 9:0.14055 10:0.20954 
0 10 10 10 -0 -0 -0 -0 -0 -0 1:-0.7594 2:-0.67475 3:1.45328 4:-0.8243 5:-0.83516 6:-0.70568 7:-0.86409 8:-0.8554 9:-0.80823 10:-0.95063 
0 10 10 10 -10 -0 -0 -0 -0 -0 1:-0.7594 2:-0.67475 3:1.45328 4:-0.40795 5:-0.48248 6:-0.10798 7:-0.8019 8:-0.73601 9:-0.80367 10:-0.81773 
0 0 10 -10 -10 -10 -0 -0 -0 -0 1:1.31652 2:-0.67475 3:-0.68794 4:-0.15815 5:-0.18018 6:-0.58614 7:-0.55108 8:-0.45894 9:-0.56191 10:-0.613 
10 10 10 10 -0 -0 -0 -0 -0 -0 1:-0.7594 2:-0.67475 3:1.45328 4:-1.28227 5:-1.23822 6:-1.0643 7:-1.22911 8:-1.1077 9:-1.17771 10:-1.2308 
0 10 10 10 -0 -0 -0 -0 -0 -0 1:-0.7594 2:-0.67475 3:1.45328 4:-0.24141 5:-0.33133 6:-0.58614 7:-0.51641 8:-0.22241 9:-0.60297 10:-0.71357 
0 0 0 -10 -10 -10 -10 -10 -0 -0 1:-0.7594 2:1.48167 3:-0.68794 4:1.09089 5:0.4748 6:0.7288 7:0.91001 8:1.00752 9:1.1167 10:0.67649 
0 10 10 10 -0 -0 -0 -0 -0 -0 1:-0.7594 2:-0.67475 3:1.45328 4:-0.69939 5:-0.88554 6:-1.0643 7:-1.02213 8:-0.94551 9:-1.10929 10:-0.99733 
0 0 0 -10 -10 -10 -10 -10 -0 -0 1:-0.7594 2:-0.67475 3:1.45328 4:0.21656 5:0.42441 6:0.01156 7:-0.15445 8:-0.06698 9:-0.43875 10:0.0084 
0 0 0 -10 -10 -10 -10 -10 -10 -0 1:1.31652 2:-0.67475 3:-0.68794 4:0.54964 5:0.57556 6:-0.10798 7:0.32782 8:0.28893 9:0.16792 10:0.29575 
0 10 10 10 -0.4857771970452783 -0 -0 -0 -0 -0 1:-0.7594 2:-0.67475 3:1.45328 4:0.05003 5:-0.1298 6:-0.58614 7:-0.72135 8:-0.70673 9:-0.72612 10:-0.65251 
0 0 10 -10 -10 -10 -0 -0 -0 -0 1:1.31652 2:-0.67475 3:-0.68794 4:-0.03324 5:0.1725 6:-0.34706 7:-0.079 8:0.05691 9:0.22266 10:-0.35079 
0 0 10 -10 -10 -10 -10 -0 -0 -0 1:-0.7594 2:1.48167 3:-0.68794 4:-0.44959 5:-0.58325 6:-0.58614 7:-0.69688 8:-0.73827 9:-0.48893 10:-0.60222 
0 10 10 10 -10 -0 -0 -0 -0 -0 1:-0.7594 2:-0.67475 3:1.45328 4:-0.32468 5:-0.33133 6:-0.34706 7:-0.54394 8:-0.49048 9:-0.42051 10:-0.62018 
0 10 10 10 -10 -0 -0 -0 -0 -0 1:-0.7594 2:-0.67475 3:1.45328 4:-0.11651 5:-0.18018 6:-0.34706 7:-0.47257 8:-0.299 9:-0.49349 10:-0.59863 
0 0 10 -10 -10 -10 -0 -0 -0 -0 1:-0.7594 2:-0.67475 3:1.45328 4:0.1333 5:0.12212 6:0.01156 7:-0.18096 8:0.0006 9:-0.197 10:-0.28973 
0 0 10 -10 -10 -0 -0 -0 -0 -10 1:1.31652 2:-0.67475 3:-0.68794 4:-0.07488 5:-0.18018 6:-0.4666 7:-0.44096 8:-0.25846 9:-0.40226 10:-0.6992 
0 0 10 -10 -10 -10 -0 -0 -0 -0 1:1.31652 2:-0.67475 3:-0.68794 4:0.21656 5:-0.23057 6:-0.22752 7:-0.20645 8:-0.07374 9:-0.16507 10:-0.35079 
0 0 0 -10 -10 -10 -10 -10 -0 -0 1:1.31652 2:-0.67475 3:-0.68794 4:0.54964 5:0.42441 6:0.37018 7:0.09229 8:0.0434 9:0.3002 10:0.0084 
0 0 10 -0 -10 -0 -0 -0 -0 -0 1:-0.7594 2:-0.67475 3:1.45328 4:-0.07488 5:-0.07942 6:0.01156 7:-0.22888 8:-0.04446 9:-0.19243 10:-0.4334 
0 0 10 -10 -10 -10 -10 -0 -0 -0 1:1.31652 2:-0.67475 3:-0.68794 4:-0.40795 5:-0.48248 6:0.01156 7:-0.64284 8:-0.53328 9:-0.69419 10:-0.60222 
0 0 10 -10 -10 -10 -0 -0 -0 -0 1:1.31652 2:-0.67475 3:-0.68794 4:-0.15815 5:-0.02903 6:-0.70568 7:-0.41547 8:-0.24494 9:-0.18787 10:-0.45855 
0 0 0 -10 -10 -10 -10 -10 -10 -10 1:1.31652 2:-0.67475 3:-0.68794 4:0.09166 5:0.27326 6:0.25064 7:-0.21155 8:-0.40713 9:-0.38402 10:0.08024 
0 0 10 -10 -10 -10 -10 -0 -0 -0 1:-0.7594 2:1.48167 3:-0.68794 4:-0.44959 5:-0.4321 6:-0.82522 7:-0.83249 8:-0.88469 9:-0.70332 10:-0.70998 
0 10 10 -10 -10 -10 -10 -0 -0 -0 1:-0.7594 2:1.48167 3:-0.68794 4:-0.99083 5:-0.83516 6:-0.70568 7:-0.96503 8:-0.93875 9:-1.07279 10:-0.8752 
0 0 0 -10 -10 -10 -10 -10 -10 -0 1:-0.7594 2:1.48167 3:-0.68794 4:0.67454 5:0.92824 6:1.08742 7:0.59087 8:0.49392 9:0.71073 10:0.69086 
0 0 10 -10 -10 -10 -10 -10 -6.338666767401194 -0 1:-0.7594 2:1.48167 3:-0.68794 4:-0.61612 5:-0.63363 6:-0.4666 7:-0.84064 8:-0.87342 9:-0.78086 10:-0.7459 
0 0.8124698068832986 10 -10 -10 -10 -10 -10 -10 -0 1:-0.7594 2:1.48167 3:-0.68794 4:-0.65776 5:-0.83516 6:-0.34706 7:-0.76213 8:-0.81485 9:-0.62121 10:-0.70998 
10 10 10 10 -0 -0 -0 -0 -0 -0 1:-0.7594 2:-0.67475 3:1.45328 4:-1.90679 5:-1.84282 6:-1.42292 7:-1.43711 8:-1.40054 9:-1.3556 10:-1.42836 
10 10 10 10 -0 -0 -0 -0 -0 -0 1:-0.7594 2:-0.67475 3:1.45328 4:-1.36554 5:-1.33899 6:-1.30338 7:-1.28723 8:-1.2834 9:-1.26894 10:-1.21284 
0 0 0 -10 -10 -10 -10 -10 -10 -0 1:1.31652 2:-0.67475 3:-0.68794 4:-0.69939 5:-0.53286 6:-0.34706 7:-0.71625 8:-1.02435 9:-0.90402 10:-0.35079 
0 0 0 -10 -10 -10 -10 -10 -10 -0 1:-0.7594 2:1.48167 3:-0.68794 4:0.00839 5:0.12212 6:0.48972 7:-0.14834 8:-0.38235 9:-0.06928 10:0.25983 
0 10 10 7.741675883282693 -0 -0 -0 -0 -0 -0 1:1.31652 2:-0.67475 3:-0.68794 4:-1.11574 5:-1.08708 6:-1.18384 7:-1.06699 8:-0.97479 9:-1.05911 10:-1.10509 
10 10 10 10 -0 -0 -0 -0 -0 -0 1:-0.7594 2:-0.67475 3:1.45328 4:-1.36554 5:-1.28861 6:-0.82522 7:-1.28417 8:-1.30593 9:-1.23701 10:-1.141 
0 0 0 -10 -10 -10 -10 -10 -7.456044083865057 -0 1:-0.7594 2:1.48167 3:-0.68794 4:0.05003 5:0.32365 6:-0.10798 7:-0.09226 8:-0.2089 9:-0.08296 10:-0.14605 
0 10 10 -0 -10 -10 -10 -10 -0 -0 1:1.31652 2:-0.67475 3:-0.68794 4:-1.36554 5:-1.13746 6:-0.94476 7:-1.26072 8:-1.3217 9:-1.16859 10:-1.17692 
10 10 10 -0 -10 -10 -10 -0 -0 -0 1:1.31652 2:-0.67475 3:-0.68794 4:-1.49045 5:-1.38937 6:-1.0643 7:-1.28825 8:-1.31944 9:-1.19139 10:-1.21284 
0 0 10 -10 -10 -10 -10 -0 -0 -0 1:1.31652 2:-0.67475 3:-0.68794 4:-0.57449 5:-0.68401 6:-0.10798 7:-0.74786 8:-0.86441 9:-0.20612 10:-0.85365 
0 0 0 -10 -10 -10 -10 -10 -10 -0 1:-0.7594 2:1.48167 3:-0.68794 4:-0.07488 5:-0.18018 6:-0.22752 7:-0.51641 8:-0.72925 9:-0.46156 10:-0.3903 
0 0 0 -10 -10 -10 -10 -10 -10 -10 1:1.31652 2:-0.67475 3:-0.68794 4:-0.44959 5:-0.38171 6:0.96788 7:-0.64998 8:-0.75629 9:-0.47524 10:-0.54834 
0 0 10 -10 -10 -10 -0 -0 -0 -0 1:1.31652 2:-0.67475 3:-0.68794 4:0.2582 5:0.27326 6:0.1311 7:0.28499 8:0.62683 9:-0.11489 10:-0.00238 
0 0 0 -10 -10 -10 -10 -10 -0 -0 1:-0.7594 2:1.48167 3:-0.68794 4:0.42474 5:0.57556 6:0.01156 7:0.26358 8:0.37228 9:0.00827 10:0.2275 
0 0 0 -10 -10 -10 -10 -10 -10 -8.333281156736874 1:1.31652 2:-0.67475 3:-0.68794 4:0.67454 5:0.4748 6:0.48972 7:0.56029 8:0.27767 9:1.10302 10:0.61902 
0 0 0 -10 -10 -10 -10 -0 -0 -0 1:1.31652 2:-0.67475 3:-0.68794 4:0.79945 5:0.92824 6:0.60926 7:0.97526 8:1.24405 9:0.67424 10:0.54718 
0 0 9.177982945132937 -10 -10 -10 -0 -0 -0 -0 1:-0.7594 2:1.48167 3:-0.68794 4:0.92435 5:0.77709 6:0.60926 7:0.94977 8:1.39047 9:0.72898 10:0.23469 
0 0 0 -10 -10 -10 -10 -10 -10 -0 1:-0.7594 2:1.48167 3:-0.68794 4:1.25743 5:1.18016 6:0.37018 7:1.32498 8:1.21026 9:1.45881 10:1.30148 
0 0 10 -10 -10 -10 -0 -0 -0 -0 1:-0.7594 2:1.48167 3:-0.68794 4:-0.15815 5:-0.18018 6:-0.22752 7:-0.31555 8:-0.19313 9:-0.36121 10:-0.4334 
0 0 10 -10 -10 -10 -0 -0 -0 -9.221939493924841 1:1.31652 2:-0.67475 3:-0.68794 4:-0.15815 5:0.02135 6:-0.34706 7:-0.3808 8:-0.31702 9:-0.43419 10:-0.60222 
0 0 0 -10 -10 -10 -10 -0 -0 -0 1:1.31652 2:-0.67475 3:-0.68794 4:0.42474 5:0.67633 6:0.48972 7:0.5817 8:0.61331 9:0.8567 10:0.36759 
0 0 10 -10 -10 -6.355415369363315 -0 -0 -0 -0 1:1.31652 2:-0.67475 3:-0.68794 4:0.46637 5:0.82748 6:-0.22752 7:0.62146 8:1.02104 9:0.69249 10:-0.01315 
0 0 0 -10 -10 -10 -10 -0 -0 -0 1:-0.7594 2:1.48167 3:-0.68794 4:0.59127 5:0.52518 6:0.01156 7:0.3584 8:0.47815 9:0.26371 10:0.09101 
0 0 0 -10 -10 -10 -10 -0 -0 -0 1:-0.7594 2:1.48167 3:-0.68794 4:0.67454 5:0.82748 6:0.25064 7:0.6235 8:0.75297 9:0.76547 10:0.40351 
0 0 0 -10 -10 -10 -10 -10 -0 -0 1:1.31652 2:-0.67475 3:-0.68794 4:1.04925 5:0.87786 6:0.48972 7:0.96914 8:0.94895 9:1.19881 10:0.96025 
1.725166273020329 2.627933172515134 0 -10 -10 -0 -0 -0 -0 -0 1:-0.7594 2:1.48167 3:-0.68794 4:1.09089 5:0.52518 6:0.48972 7:1.35659 8:1.48733 9:1.37214 10:-0.40467 
0 0 10 -0 -10 -0 -0 -0 -0 -0 1:-0.7594 2:-0.67475 3:1.45328 4:0.09166 5:-0.18018 6:-0.34706 7:-0.46849 8:-0.44993 9:-0.28823 10:-0.50165 
0 0 0 -10 -10 -10 -0 -0 -0 -0 1:1.31652 2:-0.67475 3:-0.68794 4:0.34147 5:0.4748 6:0.25064 7:0.26664 8:0.43761 9:0.5374 10:-0.06344 
0 0 0 -10 -10 -10 -9.453094240418327 -0 -0 -0 1:1.31652 2:-0.67475 3:-0.68794 4:0.42474 5:0.27326 6:0.01156 7:0.03417 8:0.18757 9:0.09494 10:-0.12091 
0 0 10 -10 -10 -10 -10 -0 -0 -0 1:-0.7594 2:1.48167 3:-0.68794 4:0.67454 5:0.62595 6:0.60926 7:0.71119 8:1.13367 9:0.42792 10:0.38195 
0 0 0 -10 -10 -10 -10 -10 -10 -0 1:-0.7594 2:1.48167 3:-0.68794 4:1.04925 5:0.92824 6:1.20696 7:1.29542 8:1.27108 9:1.44513 10:1.3338 
0 0 10 -10 -10 -10 -10 -10 -0 -0 1:-0.7594 2:1.48167 3:-0.68794 4:1.21579 5:0.97863 6:1.56558 7:1.09252 8:1.1179 9:1.11214 10:0.82016 
0 0 0 -10 -10 -10 -10 -10 -10 -0 1:-0.7594 2:1.48167 3:-0.68794 4:1.38233 5:1.33131 6:0.37018 7:1.27502 8:1.19224 9:1.18512 10:1.08596 
0 0 10 -10 -10 -10 -10 -10 -1.275210626309905 -0 1:-0.7594 2:-0.67475 3:1.45328 4:-0.19978 5:0.02135 6:0.01156 7:-0.34104 8:-0.45443 9:-0.16507 10:-0.30769 
0 0 10 -0 -10 -5.506465105534301 -0 -0 -0 -0 1:-0.7594 2:-0.67475 3:1.45328 4:-0.03324 5:-0.1298 6:-0.34706 7:-0.33798 8:-0.26521 9:-0.45244 10:-0.3472 
0 0 10 -0 -10 -0 -0 -0 -0 -0 1:-0.7594 2:-0.67475 3:1.45328 4:0.09166 5:-0.07942 6:-0.10798 7:-0.46135 8:-0.31477 9:-0.54367 10:-0.60941 
0 0 0 -10 -10 -10 -10 -0 -0 -0 1:-0.7594 2:-0.67475 3:1.45328 4:0.2582 5:0.22288 6:0.01156 7:-0.12692 8:-0.08275 9:-0.14226 10:-0.06344 
0 0 0 -10 -10 -0 -0 -0 -0 -0 1:-0.7594 2:-0.67475 3:1.45328 4:0.29983 5:0.4748 6:0.1311 7:0.29621 8:0.84533 9:-0.17419 10:-0.02752 
0 0 0 -10 -10 -10 -10 -10 -0 -0 1:-0.7594 2:1.48167 3:-0.68794 4:0.3831 5:0.52518 6:-0.10798 7:0.30742 8:0.16954 9:0.65599 10:0.19158 
0 0 0 -10 -10 -10 -10 -0 -0 -0 1:-0.7594 2:1.48167 3:-0.68794 4:0.84108 5:1.07939 6:0.48972 7:0.88758 8:0.95571 9:1.32653 10:0.59028 
0 0 0 -10 -10 -10 -10 -10 -0 -0 1:1.31652 2:-0.67475 3:-0.68794 4:1.34069 5:1.38169 6:1.56558 7:1.96529 8:2.05049 9:2.14759 10:1.59601 
0 10 10 -0 -10 -0 -0 -0 -0 -0 1:1.31652 2:-0.67475 3:-0.68794 4:-0.90756 5:-0.93593 6:-0.58614 7:-0.8957 8:-0.71123 9:-1.05455 10:-0.97578 
0 10 10 10 -0 -0 -0 -0 -0 -0 1:-0.7594 2:-0.67475 3:1.45328 4:-0.44959 5:-0.63363 6:0.01156 7:-0.74888 8:-0.58734 9:-0.63946 10:-0.88239 
0 0 10 -0 -10 -0 -0 -0 -0 -0 1:-0.7594 2:-0.67475 3:1.45328 4:0.05003 5:0.22288 6:-0.22752 7:-0.25335 8:-0.06022 9:-0.35665 10:-0.35797 
0 0 10 -10 -10 -10 -0 -0 -0 -0 1:-0.7594 2:1.48167 3:-0.68794 4:0.17493 5:0.02135 6:0.01156 7:-0.17994 8:-0.01292 9:-0.02822 10:-0.2574 
0 10 10 -10 -10 -0 -0 -0 -0 -0 1:-0.7594 2:1.48167 3:-0.68794 4:0.29983 5:0.27326 6:0.25064 7:0.08719 8:0.52321 9:0.02651 10:-0.39748 
0 0 10 -10 -10 -3.310695843666632 -0 -0 -0 -0 1:-0.7594 2:1.48167 3:-0.68794 4:0.46637 5:0.27326 6:0.01156 7:0.25339 8:0.52095 9:0.32757 10:-0.21071 
0 0 0 -10 -10 -10 -10 -10 -0 -0 1:-0.7594 2:1.48167 3:-0.68794 4:0.67454 5:1.07939 6:0.7288 7:0.93856 8:1.08411 9:1.03916 10:0.66571 
0 10 10 10 -10 -0 -0 -0 -0 -0 1:-0.7594 2:-0.67475 3:1.45328 4:-0.07488 5:-0.48248 6:-0.34706 7:-0.72645 8:-0.80134 9:-0.50718 10:-0.72435 
0 0 10 -0 -10 -2.79564552072697 -0 -0 -0 -0 1:-0.7594 2:-0.67475 3:1.45328 4:-0.03324 5:0.02135 6:0.1311 7:-0.37265 8:-0.28323 9:-0.19243 10:-0.53038 
0 0 10 -0 -10 -0 -0 -0 -0 -0 1:-0.7594 2:-0.67475 3:1.45328 4:0.00839 5:-0.18018 6:-0.4666 7:-0.33594 8:-0.21566 9:-0.30647 10:-0.43699 
0 0 10 -10 -10 -10 -10 -10 -10 -0 1:-0.7594 2:-0.67475 3:1.45328 4:0.05003 5:-0.07942 6:0.1311 7:-0.55821 8:-0.74728 9:-0.457 10:-0.31487 
0 0 9.426207364232432 -10 -10 -10 -10 -10 -10 -0 1:-0.7594 2:-0.67475 3:1.45328 4:0.1333 5:0.1725 6:0.01156 7:-0.17688 8:-0.17736 9:-0.37489 10:0.08024 
0 0 10 -0 -10 -0 -0 -0 -0 -0 1:-0.7594 2:-0.67475 3:1.45328 4:0.17493 5:-0.07942 6:-0.22752 7:-0.29108 8:-0.13907 9:-0.32016 10:-0.42263 
0 0 0 -10 -10 -10 -10 -10 -10 -10 1:-0.7594 2:-0.67475 3:1.45328 4:0.3831 5:0.37403 6:0.37018 7:0.07802 8:0.05015 9:-0.09208 10:0.29575 
0 0 0 -10 -10 -10 -10 -10 -0 -0 1:-0.7594 2:-0.67475 3:1.45328 4:0.46637 5:0.37403 6:-0.34706 7:-0.24316 8:-0.25395 9:-0.36577 10:-0.02752 
0 0 0 -10 -10 -10 -10 -0 -0 -0 1:1.31652 2:-0.67475 3:-0.68794 4:0.63291 5:0.62595 6:0.60926 7:0.46954 8:0.65161 9:0.55108 10:0.25983 
0 0 0 -10 -10 -10 -10 -10 -10 -0 1:-0.7594 2:1.48167 3:-0.68794 4:0.67454 5:0.62595 6:0.37018 7:0.29621 8:0.15152 9:0.39599 10:0.68727 
0 0 0 0 -10 -10 -10 -10 -10 -0 1:1.31652 2:-0.67475 3:-0.68794 4:0.84108 5:0.92824 6:0.7288 7:0.55009 8:0.47365 9:0.3595 10:0.82735 
0 0 0 0 -10 -10 -10 -10 -10 -0 1:-0.7594 2:1.48167 3:-0.68794 4:0.92435 5:0.82748 6:0.7288 7:0.88248 8:0.80704 9:0.78372 10:1.01413 
0 0 0 0 -10 -10 -10 -10 -0 -0 1:1.31652 2:-0.67475 3:-0.68794 4:1.00762 5:0.77709 6:0.25064 7:0.80091 8:0.9467 9:0.84758 10:0.65494 
0 0 0 0 -10 -10 -10 -10 -0 -0 1:1.31652 2:-0.67475 3:-0.68794 4:1.04925 5:1.02901 6:0.48972 7:1.13126 8:1.25756 9:1.00267 10:0.91715 
0 0 0 0 -10 -10 -10 -0 -0 -0 1:1.31652 2:-0.67475 3:-0.68794 4:1.13252 5:0.92824 6:0.60926 7:1.00075 8:1.38596 9:0.80652 10:0.73396 
0 0 10 10 -10 -10 -10 -0 -0 -0 1:-0.7594 2:1.48167 3:-0.68794 4:0.17493 5:-0.23057 6:0.25064 7:0.59087 8:0.82506 9:0.58301 10:0.32808 
0 0 0 0 -10 -10 -10 -10 -0 -0 1:1.31652 2:-0.67475 3:-0.68794 4:0.67454 5:0.67633 6:0.84834 7:0.86413 8:0.89264 9:1.13951 10:0.74833 
0 0 0 0 -10 -10 -10 -0 -0 -0 1:1.31652 2:-0.67475 3:-0.68794 4:0.84108 5:0.87786 6:0.84834 7:0.86718 8:1.00076 9:0.96161 10:0.57232 
0 0 0 10 -10 -10 -10 -10 -8.92698608365121 -4.665311094251446 1:-0.7594 2:-0.67475 3:1.45328 4:0.2582 5:0.42441 6:0.84834 7:-0.18504 8:-0.24944 9:-0.04647 10:-0.13528 
0 0 0 10 -0 -10 -10 -1.49765569496524 -0 -0 1:-0.7594 2:-0.67475 3:1.45328 4:0.34147 5:0.27326 6:0.1311 7:0.03213 8:0.1718 9:-0.20612 10:0.11616 
0 0 0 10 -10 -10 -10 -10 -0 -0 1:1.31652 2:-0.67475 3:-0.68794 4:0.42474 5:0.42441 6:-0.22752 7:-0.0892 8:-0.18637 9:0.11318 10:-0.08858 
0 0 0 10 -10 -10 -10 -0 -0 -0 1:-0.7594 2:1.48167 3:-0.68794 4:0.42474 5:0.22288 6:0.37018 7:-0.06779 8:-0.04896 9:0.10862 10:-0.13528 
0 0 0 0 -10 -10 -10 -10 -10 -0 1:1.31652 2:-0.67475 3:-0.68794 4:0.42474 5:0.67633 6:0.1311 7:0.05762 8:0.03213 9:-0.06928 10:0.21673 
0 0 0 0 -10 -10 -10 -10 -10 -0 1:1.31652 2:-0.67475 3:-0.68794 4:0.79945 5:0.82748 6:0.25064 7:0.74687 8:0.45563 9:1.10758 10:0.83453 
0 0 4.003491029206878 10 -10 -10 -10 -0 -0 -0 1:1.31652 2:-0.67475 3:-0.68794 4:0.79945 5:0.62595 6:0.25064 7:0.97934 8:1.02554 9:2.3711 10:0.61902 
0 0 10 10 -0 -10 -10 -0 -0 -0 1:-0.7594 2:-0.67475 3:1.45328 4:-0.11651 5:0.4748 6:-0.10798 7:-0.2921 8:-0.32378 9:-0.24261 10:-0.25381 
0 0 0 0 -10 -10 -10 -10 -0 -0 1:1.31652 2:-0.67475 3:-0.68794 4:1.13252 5:1.07939 6:1.3265 7:1.50239 8:1.69007 9:1.57285 10:1.05723 
0 10 10 10 10 -0 -0 -0 -0 -0 1:-0.7594 2:-0.67475 3:1.45328 4:-0.57449 5:-0.53286 6:-1.42292 7:-0.76825 8:-0.64365 9:-0.73981 10:-0.81773 
0 10 10 10 10 -10 -4.953001506893961 -0 -0 -0 1:1.31652 2:-0.67475 3:-0.68794 4:-0.69939 5:-0.58325 6:-0.70568 7:-0.755 8:-0.71799 9:-0.84016 10:-0.78182 
0 0 0 0 -10 -10 -10 -10 -10 -10 1:-0.7594 2:1.48167 3:-0.68794 4:0.29983 5:0.1725 6:-0.34706 7:0.21056 8:0.00735 9:0.29564 10:0.69086 
0 0 0 0 -10 -10 -10 -10 -10 -0 1:-0.7594 2:1.48167 3:-0.68794 4:-0.15815 5:-0.07942 6:0.60926 7:-0.20339 8:-0.41389 9:-0.23349 10:0.08024 
0 0 10 10 -0 -10 -10 -10 -0 -0 1:1.31652 2:-0.67475 3:-0.68794 4:-0.40795 5:-0.53286 6:-0.34706 7:-0.74684 8:-0.78106 9:-0.67139 10:-0.67406 
10 10 10 10 -0 -10 -0 -0 -0 -0 1:-0.7594 2:1.48167 3:-0.68794 4:-1.28227 5:-1.23822 6:-0.82522 7:-1.13939 8:-1.1122 9:-1.11385 10:-1.11586 
0 0 10 10 10 -10 -10 -0 -0 -0 1:1.31652 2:-0.67475 3:-0.68794 4:-0.8243 5:-0.83516 6:-0.4666 7:-0.92425 8:-0.9793 9:-0.67595 10:-0.96141 
10 10 10 10 10 -10 -1.424071427123032 -0 -0 -0 1:-0.7594 2:1.48167 3:-0.68794 4:-1.61535 5:-1.49014 6:-1.42292 7:-1.28213 8:-1.33746 9:-1.19139 10:-1.21284 
0 0 0 0 -10 -10 -10 -10 -0 -0 1:1.31652 2:-0.67475 3:-0.68794 4:0.54964 5:0.72671 6:0.48972 7:0.8835 8:0.9422 9:0.83845 10:0.69086 
0 0 0 0 -10 -10 -10 -6.582937906825409 -0 -0 1:1.31652 2:-0.67475 3:-0.68794 4:1.00762 5:0.82748 6:0.48972 7:0.86107 8:0.79352 9:1.40407 10:0.55796 
0 0 0 0 -10 -10 -10 -0 -0 -0 1:1.31652 2:-0.67475 3:-0.68794 4:1.21579 5:1.12978 6:1.20696 7:1.65126 8:2.03697 9:1.71881 10:1.09315 
0 0 10 10 10 -0 -0 -0 -0 -0 1:-0.7594 2:-0.67475 3:1.45328 4:-0.07488 5:-0.07942 6:-0.34706 7:-0.48174 8:-0.42515 9:-0.5756 10:-0.50883 
0 0 10 10 -0 -10 -0 -0 -0 -0 1:-0.7594 2:1.48167 3:-0.68794 4:0.17493 5:0.22288 6:0.01156 7:0.00664 8:0.343 9:-0.09664 10:-0.27177 
0 0 0 10 -10 -10 -10 -0 -0 -0 1:-0.7594 2:1.48167 3:-0.68794 4:0.3831 5:0.22288 6:0.48972 7:-0.03618 8:0.12674 9:-0.197 10:-0.07421 
0 10 10 10 -0 -10 -0 -0 -0 -0 1:-0.7594 2:1.48167 3:-0.68794 4:0.75781 5:0.62595 6:0.37018 7:0.52052 8:1.0323 9:0.25915 10:0.0515 
0 0 0 0 -10 -10 -10 -10 -0 -0 1:1.31652 2:-0.67475 3:-0.68794 4:0.79945 5:0.82748 6:0.37018 7:0.55315 8:0.65611 9:0.61038 10:0.51126 
0 0 0 0 -10 -10 -10 -10 -0 -0 1:-0.7594 2:1.48167 3:-0.68794 4:1.17416 5:0.97863 6:0.60926 7:1.06091 8:1.07735 9:1.24898 10:0.87045 
0 0 10 10 10 -10 -10 -10 -10 -0 1:-0.7594 2:-0.67475 3:1.45328 4:-0.15815 5:-0.23057 6:-0.34706 7:-0.47461 8:-0.51525 9:-0.76262 10:-0.20711 
0 10 10 10 10 -0 -0 -0 -0 -0 1:-0.7594 2:-0.67475 3:1.45328 4:-0.15815 5:-0.28095 6:-0.10798 7:-0.59186 8:-0.4274 9:-0.78086 10:-0.53038 
0 0 0 10 -10 -10 -10 -10 -0 -0 1:-0.7594 2:1.48167 3:-0.68794 4:-0.07488 5:-0.1298 6:-0.10798 7:-0.63774 8:-0.71123 9:-0.44331 10:-0.55194 
0 0 0 10 -10 -10 -10 -0 -0 -0 1:1.31652 2:-0.67475 3:-0.68794 4:0.54964 5:0.62595 6:0.1311 7:0.19323 8:0.4286 9:-0.06928 10:0.10897 
0 0 0 0 -10 -10 -10 -0 -0 -0 1:1.31652 2:-0.67475 3:-0.68794 4:0.63291 5:1.02901 6:1.08742 7:0.9304 8:1.12691 9:0.8567 10:0.54718 
0 0 0 0 -10 -10 -10 -10 -0 -0 1:-0.7594 2:1.48167 3:-0.68794 4:1.50723 5:1.33131 6:1.56558 7:1.8929 8:2.10455 9:2.15671 10:1.59601 
0 0 0 0 -10 -10 -10 -10 -0 -0 1:1.31652 2:-0.67475 3:-0.68794 4:1.67377 5:1.63361 6:1.20696 7:3.06238 8:4.02604 9:3.28795 10:2.01985 
0 1.952996602543434 10 10 10 -0 -0 -0 -0 -0 1:1.31652 2:-0.67475 3:-0.68794 4:-0.19978 5:-0.4321 6:-0.22752 7:-0.47767 8:-0.22692 9:-0.6577 10:-0.613 
0 0 10 10 -3.610118334215411 -10 -0 -0 -0 -0 1:-0.7594 2:1.48167 3:-0.68794 4:0.1333 5:0.12212 6:0.01156 7:-0.05147 8:0.09295 9:-0.00085 10:-0.20711 
0 0 0 0 -10 -10 -10 -10 -0 -0 1:-0.7594 2:1.48167 3:-0.68794 4:0.84108 5:0.77709 6:0.48972 7:0.86718 8:1.04356 9:0.71529 10:0.78784 
0 10 10 10 10 -10 -10 -0 -0 -0 1:-0.7594 2:-0.67475 3:1.45328 4:-0.19978 5:-0.18018 6:-0.22752 7:-0.65508 8:-0.66618 9:-0.69876 10:-0.45495 
0 0 10 10 -0 -10 -10 -9.949957464608246 -0 -0 1:-0.7594 2:-0.67475 3:1.45328 4:-0.15815 5:0.1725 6:-0.34706 7:-0.443 8:-0.51525 9:-0.39314 10:-0.27895 
0 0 0 10 -10 -10 -10 -0 -0 -0 1:-0.7594 2:1.48167 3:-0.68794 4:0.46637 5:0.42441 6:0.7288 7:0.28907 8:0.46013 9:0.46898 10:0.06587 
0 0 0 10 -0 -10 -10 -10 -0 -0 1:-0.7594 2:-0.67475 3:1.45328 4:0.50801 5:0.42441 6:-0.10798 7:0.05354 8:0.0907 9:0.05844 10:0.15207 
0 0 0 10 -10 -10 -10 -0 -0 -0 1:-0.7594 2:1.48167 3:-0.68794 4:0.75781 5:1.07939 6:-0.10798 7:0.59699 8:0.83632 9:0.45529 10:0.36759 
0 0 0 0 -10 -10 -10 -10 -10 -0 1:-0.7594 2:-0.67475 3:1.45328 4:1.21579 5:0.77709 6:0.84834 7:0.87228 8:0.79352 9:1.29004 10:1.05723 
0 0 0 0 -10 -10 -10 -10 -10 -0 1:1.31652 2:-0.67475 3:-0.68794 4:1.21579 5:1.18016 6:1.3265 7:1.24749 8:1.35217 9:0.79284 10:1.3374 
0 0 10 10 6.41508108635492 -10 -0 -0 -0 -0 1:1.31652 2:-0.67475 3:-0.68794 4:0.2582 5:0.1725 6:0.25064 7:0.09025 8:0.46464 9:0.03564 10:-0.3041 
0 0 0 10 -10 -10 -10 -10 -0 -0 1:-0.7594 2:1.48167 3:-0.68794 4:0.54964 5:0.32365 6:0.01156 7:0.3635 8:0.53222 9:0.27283 10:0.38555 
0 0 0 0 -10 -10 -10 -10 -10 -0 1:1.31652 2:-0.67475 3:-0.68794 4:0.71618 5:0.67633 6:0.84834 7:0.39817 8:0.22361 9:0.73354 10:0.59747 
0 2.868558246207328 10 10 -0 -10 -10 -0 -0 -0 1:-0.7594 2:1.48167 3:-0.68794 4:0.84108 5:0.82748 6:-0.70568 7:0.62656 8:0.75297 9:0.0995 10:0.38555 
0 0 0 0 -10 -10 -10 -10 -0 -0 1:1.31652 2:-0.67475 3:-0.68794 4:0.96598 5:0.77709 6:0.48972 7:0.36146 8:0.43535 9:0.40055 10:0.32089 
0 0 2.301735720187221 10 -10 -10 -10 -10 -10 -0 1:-0.7594 2:-0.67475 3:1.45328 4:0.09166 5:0.12212 6:0.1311 7:-0.28598 8:-0.38911 9:-0.26542 10:-0.01315 
0 0 0 0 -10 -10 -10 -10 -0 -0 1:1.31652 2:-0.67475 3:-0.68794 4:0.29983 5:0.42441 6:0.1311 7:0.13307 8:0.13125 9:0.26371 10:0.18081 
0 0 0 10 -0 -10 -10 -10 -10 -0 1:-0.7594 2:-0.67475 3:1.45328 4:0.34147 5:0.32365 6:-0.10798 7:-0.12387 8:-0.13006 9:-0.38402 10:0.06228 
0 0 0 0 -10 -10 -10 -10 -0 -0 1:1.31652 2:-0.67475 3:-0.68794 4:0.42474 5:0.62595 6:0.25064 7:0.30539 8:0.41058 9:0.14055 10:0.26701 
0 0 0 3.635056263673286 -10 -10 -10 -10 -0 -1.45002664840879 1:1.31652 2:-0.67475 3:-0.68794 4:0.54964 5:-0.02903 6:0.25064 7:0.04947 8:-0.15033 9:0.7381 10:0.04432 
0 0 0 0 -10 -10 -10 -10 -0 -0 1:-0.7594 2:1.48167 3:-0.68794 4:0.96598 5:0.92824 6:0.25064 7:0.76013 8:0.8994 9:0.45985 10:0.69445 
0 0 0 10 -10 -10 -10 -0 -0 -0 1:1.31652 2:-0.67475 3:-0.68794 4:0.42474 5:0.72671 6:0.25064 7:0.24013 8:0.343 9:0.72898 10:0.08383 
0 0 0 10 -10 -10 -10 -10 -0 -0 1:1.31652 2:-0.67475 3:-0.68794 4:0.42474 5:0.42441 6:-0.10798 7:0.18915 8:-0.02418 9:0.25915 10:-0.01674 
0 0 0 10 -10 -10 -10 -10 -0 -0 1:-0.7594 2:1.48167 3:-0.68794 4:0.21656 5:0.32365 6:-0.34706 7:-0.12998 8:-0.13231 9:0.29108 10:0.04432 
0 0 0 10 -10 -10 -10 -10 -10 -0 1:-0.7594 2:1.48167 3:-0.68794 4:0.17493 5:0.02135 6:-0.58614 7:-0.31045 8:-0.31252 9:-0.20612 10:-0.13528 
10 10 10 10 10 -0 -0 -0 -0 -0 1:-0.7594 2:-0.67475 3:1.45328 4:-1.69862 5:-1.59091 6:-1.42292 7:-1.37083 8:-1.36224 9:-1.33736 10:-1.28468 
0 10 10 10 10 -0 -0 -0 -0 -0 1:-0.7594 2:-0.67475 3:1.45328 4:-0.86593 5:-0.83516 6:-0.34706 7:-0.89162 8:-0.90946 9:-0.71244 10:-0.88957 
0 10 10 10 10 -0 -0 -0 -0 -0 1:1.31652 2:-0.67475 3:-0.68794 4:-1.32391 5:-1.23822 6:-1.30338 7:-1.24033 8:-1.23384 9:-1.17771 10:-1.21284 
0 0 0 0 -10 -10 -10 -10 -10 -9.925566869281045 1:-0.7594 2:1.48167 3:-0.68794 4:0.29983 5:0.57556 6:0.48972 7:0.41346 8:0.32723 9:0.19985 10:0.70522 
0 0 0 9.13225883269841 -10 -10 -10 -0 -0 -0 1:1.31652 2:-0.67475 3:-0.68794 4:0.71618 5:0.62595 6:0.37018 7:0.4155 8:0.62007 9:0.33669 10:0.28497 
0 0 0 0 -10 -10 -10 -0 -0 -0 1:1.31652 2:-0.67475 3:-0.68794 4:1.04925 5:0.97863 6:0.96788 7:1.30561 8:1.58645 9:1.39495 10:1.01413 
0 10 10 10 10 -0 -0 -0 -0 -0 1:-0.7594 2:-0.67475 3:1.45328 4:-0.40795 5:-0.53286 6:-0.34706 7:-0.6979 8:-0.64816 9:-0.63946 10:-0.69561 
0 10 10 10 10 -0 -0 -0 -0 -0 1:-0.7594 2:-0.67475 3:1.45328 4:-0.19978 5:-0.4321 6:-0.34706 7:-0.61327 8:-0.58734 9:-0.70788 10:-0.53398 
0 0 10 10 10 -10 -0 -0 -0 -0 1:-0.7594 2:-0.67475 3:1.45328 4:-0.07488 5:-0.07942 6:-0.10798 7:-0.39304 8:-0.24269 9:-0.53911 10:-0.38312 
0 0 10 10 10 -10 -0 -0 -0 -0 1:-0.7594 2:-0.67475 3:1.45328 4:0.05003 5:-0.02903 6:-0.22752 7:-0.34104 8:-0.29224 9:-0.37489 10:-0.35079 
0 0 10 10 10 -0 -0 -0 -0 -0 1:-0.7594 2:-0.67475 3:1.45328 4:0.42474 5:0.32365 6:-0.34706 7:0.04641 8:0.4331 9:-0.08296 10:-0.3041 
0 0 0 0 -10 -10 -10 -10 -7.680618337921557 -0 1:-0.7594 2:1.48167 3:-0.68794 4:0.42474 5:0.67633 6:0.48972 7:0.13511 8:0.0051 9:0.36862 10:0.2311 
0 0 0 0 -10 -10 -10 -10 -0 -0 1:-0.7594 2:1.48167 3:-0.68794 4:0.50801 5:0.57556 6:0.60926 7:0.2177 8:0.19883 9:0.42792 10:0.14489 
0 0 0 0 -10 -10 -10 -10 -0 -0 1:-0.7594 2:1.48167 3:-0.68794 4:0.63291 5:0.77709 6:0.1311 7:-0.10755 8:-0.02193 9:-0.20156 10:0.00122 
0 0 0 10 -10 -10 -10 -0 -0 -0 1:1.31652 2:-0.67475 3:-0.68794 4:0.84108 5:0.72671 6:0.48972 7:0.63777 8:0.99175 9:0.30932 10:0.36759 
0 10 10 10 10 -0 -0 -0 -0 -0 1:-0.7594 2:1.48167 3:-0.68794 4:0.2582 5:-0.02903 6:-0.4666 7:0.17182 8:0.44662 9:0.14055 10:-0.23226 
0 0 0 0 -10 -10 -10 -0 -0 -0 1:1.31652 2:-0.67475 3:-0.68794 4:0.75781 5:0.67633 6:1.20696 7:1.23322 8:1.67655 9:1.13495 10:0.64416 
0 0 0 0 -10 -10 -10 -10 -0 -0 1:-0.7594 2:1.48167 3:-0.68794 4:1.17416 5:0.92824 6:0.84834 7:1.2373 8:1.27784 9:1.49986 10:0.94229 
0 0 10 10 -0 -10 -10 -10 -0 -0 1:-0.7594 2:-0.67475 3:1.45328 4:0.05003 5:0.12212 6:0.01156 7:-0.31045 8:-0.4657 9:0.04476 10:-0.22148 
0 0 0 10 -0 -10 -10 -0 -0 -0 1:1.31652 2:-0.67475 3:-0.68794 4:0.17493 5:0.02135 6:0.01156 7:-0.18708 8:-0.04671 9:-0.2791 10:-0.19275 
0 0 0 0 -10 -10 -10 -10 -0 -0 1:-0.7594 2:1.48167 3:-0.68794 4:0.71618 5:0.87786 6:0.60926 7:0.5195 8:0.41959 9:0.84301 10:0.56155 
0 0 0 10 -10 -10 -10 -0 -0 -0 1:1.31652 2:-0.67475 3:-0.68794 4:0.84108 5:0.62595 6:0.25064 7:0.60209 8:0.88588 9:0.46441 10:0.34604 
0 0 0 0 -10 -10 -10 -10 -10 -0 1:-0.7594 2:1.48167 3:-0.68794 4:0.92435 5:0.97863 6:0.7288 7:0.88656 8:0.68765 9:1.29004 10:0.83453 
0 3.364078855812766 0 10 -10 -10 -0 -0 -0 -0 1:-0.7594 2:1.48167 3:-0.68794 4:1.04925 5:1.18016 6:0.60926 7:0.83456 8:1.29586 9:0.6195 10:0.44302 
0 0 10 10 10 -10 -10 -0 -0 -0 1:-0.7594 2:-0.67475 3:1.45328 4:0.34147 5:0.22288 6:-0.34706 7:-0.35531 8:-0.35081 9:-0.37945 10:-0.20711 
0 0 0 0 -10 -10 -10 -10 -0 -0 1:1.31652 2:-0.67475 3:-0.68794 4:0.84108 5:0.87786 6:0.37018 7:0.71017 8:0.65836 9:0.88863 10:0.76269 
0 10 10 10 10 -10 -0 -0 -0 -0 1:1.31652 2:-0.67475 3:-0.68794 4:-0.9492 5:-0.83516 6:-0.94476 7:-0.96503 8:-0.96128 9:-0.99069 10:-0.96141 
0 0 0 0 -10 -10 -10 -10 -10 -0 1:-0.7594 2:1.48167 3:-0.68794 4:0.75781 5:0.67633 6:0.1311 7:0.25237 8:0.14477 9:0.13143 10:0.5831 
0 0 0 0 -10 -10 -10 -10 -10 -0 1:-0.7594 2:1.48167 3:-0.68794 4:-0.28305 5:-0.23057 6:0.48972 7:-0.35226 8:-0.513 9:-0.08752 10:-0.24303 
10 10 10 10 10 -0 -0 -0 -0 -0 1:-0.7594 2:-0.67475 3:1.45328 4:-1.94843 5:-1.84282 6:-1.54246 7:-1.38001 8:-1.29917 9:-1.10929 10:-1.39244 
0 0 0 0 -10 -10 -10 -10 -10 -0 1:-0.7594 2:1.48167 3:-0.68794 4:0.71618 5:0.92824 6:0.96788 7:1.2424 8:0.71693 9:1.75987 10:0.68727 
0 0 10 10 -0 -8.672371246856619 -0 -0 -0 -0 1:1.31652 2:-0.67475 3:-0.68794 4:0.71618 5:0.67633 6:0.25064 7:0.63879 8:1.17422 9:0.51459 10:0.04432 
0 0 0 0 -10 -10 -10 -10 -10 -0 1:1.31652 2:-0.67475 3:-0.68794 4:0.84108 5:0.87786 6:0.37018 7:0.40021 8:0.45338 9:0.12687 10:0.72678 
0 0 0 0 -10 -10 -10 -10 -10 -0 1:1.31652 2:-0.67475 3:-0.68794 4:1.04925 5:1.18016 6:1.08742 7:1.05377 8:1.02104 9:0.88863 10:1.06082 
0 0 0 0 10 -0 -10 -10 -0 -0 1:-0.7594 2:1.48167 3:-0.68794 4:0.59127 5:0.4748 6:0.01156 7:0.17386 8:0.13575 9:0.38231 10:0.2311 
0 0 0 0 0 -10 -10 -10 -0 -0 1:1.31652 2:-0.67475 3:-0.68794 4:0.63291 5:0.67633 6:1.56558 7:0.70813 8:0.74847 9:0.9753 10:0.4969 
0 0 0 0 10 -10 -10 -10 -0 -0 1:-0.7594 2:1.48167 3:-0.68794 4:0.75781 5:0.72671 6:0.60926 7:0.67856 8:0.69215 9:1.09846 10:0.47534 
0 0 0 10 10 10 -10 -10 -10 -0 1:-0.7594 2:1.48167 3:-0.68794 4:-0.40795 5:-0.18018 6:-0.4666 7:-0.60817 8:-0.65717 9:-0.59384 10:-0.49447 
0 0 0 0 0 -10 -10 -10 -10 -0 1:-0.7594 2:1.48167 3:-0.68794 4:0.63291 5:0.62595 6:0.25064 7:0.19017 8:0.01637 9:0.12231 10:0.47534 
0 0 0 0 10 -0 -10 -10 -0 -0 1:-0.7594 2:1.48167 3:-0.68794 4:0.34147 5:0.37403 6:0.37018 7:-0.00559 8:-0.08275 9:0.22722 10:0.06228 
0 0 10 10 10 10 -10 -0 -0 -0 1:-0.7594 2:1.48167 3:-0.68794 4:-0.28305 5:-0.28095 6:-0.34706 7:-0.57045 8:-0.51525 9:-0.66683 10:-0.46573 
0 0 10 10 10 10 -10 -10 -0 -0 1:1.31652 2:-0.67475 3:-0.68794 4:-0.53285 5:-0.58325 6:-0.4666 7:-0.63978 8:-0.60987 9:-0.66226 10:-0.59145 
0 0 0 0 0 -10 -10 -10 -10 -10 1:-0.7594 2:1.48167 3:-0.68794 4:0.67454 5:0.77709 6:0.48972 7:0.46444 8:0.0479 9:0.50091 10:0.83453 
0 0 0 0 0 -10 -10 -10 -10 -8.399541119255927 1:-0.7594 2:1.48167 3:-0.68794 4:0.88272 5:0.92824 6:1.08742 7:1.13024 8:0.8138 9:1.3767 10:1.01413 
0 0 10 10 10 10 -0 -0 -0 -0 1:-0.7594 2:1.48167 3:-0.68794 4:-0.11651 5:-0.07942 6:0.01156 7:-0.02904 8:0.44887 9:0.14511 10:-0.31487 
0 0 0 0 0 -10 -10 -10 -10 -0.03453824629796245 1:1.31652 2:-0.67475 3:-0.68794 4:0.50801 5:0.52518 6:1.08742 7:0.19017 8:0.01862 9:0.29564 10:0.33167 
0 10 10 10 10 10 -0 -0 -0 -0 1:-0.7594 2:-0.67475 3:1.45328 4:-0.8243 5:-0.28095 6:-0.82522 7:-1.02417 8:-1.04012 9:-0.93139 10:-0.99733 
0 0 0 0 10 -10 -10 -10 -10 -0 1:-0.7594 2:1.48167 3:-0.68794 4:0.09166 5:0.27326 6:0.48972 7:-0.0372 8:-0.19763 9:-0.00998 10:0.0084 
0 0 0 10 10 10 -10 -10 -10 -0 1:-0.7594 2:1.48167 3:-0.68794 4:-0.44959 5:-0.48248 6:-0.22752 7:-0.72747 8:-0.79909 9:-0.60753 10:-0.63814 
0 0 5.78097784455776 10 10 10 -10 -0 -0 -0 1:-0.7594 2:1.48167 3:-0.68794 4:0.50801 5:0.42441 6:0.48972 7:0.50625 8:0.63133 9:0.9753 10:0.08024 
0 0 10 10 10 10 -10 -0 -0 -0 1:1.31652 2:-0.67475 3:-0.68794 4:-0.40795 5:-0.33133 6:-0.34706 7:-0.48072 8:-0.37109 9:-0.5984 10:-0.42263 
0 0 0 10 10 10 -10 -0 -0 -0 1:-0.7594 2:1.48167 3:-0.68794 4:-0.07488 5:0.07173 6:0.01156 7:-0.27579 8:-0.21566 9:-0.26086 10:-0.27895 
10 10 10 10 10 10 -0 -0 -0 -0 1:-0.7594 2:-0.67475 3:1.45328 4:-1.36554 5:-1.33899 6:-0.70568 7:-1.21382 8:-1.19104 9:-1.16859 10:-1.10509 
0 10 10 10 10 10 -0 -0 -0 -0 1:-0.7594 2:1.48167 3:-0.68794 4:-0.9492 5:-0.83516 6:-0.82522 7:-0.94872 8:-0.90271 9:-0.94507 10:-0.85365 
10 10 10 10 10 10 -0 -0 -0 -0 1:-0.7594 2:-0.67475 3:1.45328 4:-0.90756 5:-0.98631 6:-0.70568 7:-1.08535 8:-1.0649 9:-1.12753 10:-1.00092 
9.754903110955109 10 10 10 10 10 -10 -10 -10 -0 1:-0.7594 2:1.48167 3:-0.68794 4:-1.24064 5:-1.18784 6:-0.58614 7:-1.13837 8:-1.20005 9:-1.04543 10:-1.07994 
0 0 0 10 10 10 -10 -10 -0 -0 1:-0.7594 2:-0.67475 3:1.45328 4:-0.03324 5:0.1725 6:0.7288 7:-0.3023 8:-0.35757 9:-0.06015 10:-0.31487 
0 0 0 10 10 -0 -10 -10 -10 -0 1:1.31652 2:-0.67475 3:-0.68794 4:-0.32468 5:-0.38171 6:0.01156 7:-0.52253 8:-0.69997 9:-0.35665 10:-0.45855 
0 0 10 10 10 -0 -10 -10 -10 -0 1:1.31652 2:-0.67475 3:-0.68794 4:-0.90756 5:-0.83516 6:0.01156 7:-0.83962 8:-0.92749 9:-0.72156 10:-0.68124 
0 10 10 10 10 -0 -10 -10 -10 -0 1:1.31652 2:-0.67475 3:-0.68794 4:-1.36554 5:-1.13746 6:-0.22752 7:-1.12613 8:-1.21582 9:-1.12753 10:-0.99374 
0 10 10 10 10 10 -3.810336285375687 -0 -0 -0 1:1.31652 2:-0.67475 3:-0.68794 4:-1.03247 5:-1.03669 6:-1.30338 7:-1.08433 8:-1.13247 9:-1.00437 10:-0.99733 
0 0 0 10 10 -0 -10 -10 -10 -10 1:1.31652 2:-0.67475 3:-0.68794 4:-0.28305 5:-0.28095 6:0.01156 7:-0.13916 8:-0.51525 9:-0.12401 10:-0.38671 
0 0 10 10 10 10 -10 -0 -0 -0 1:-0.7594 2:1.48167 3:-0.68794 4:0.17493 5:0.32365 6:-0.10798 7:0.18303 8:0.31371 9:0.19073 10:-0.00956 
0 0 0 10 10 10 -0 -0 -0 -0 1:1.31652 2:-0.67475 3:-0.68794 4:0.3831 5:0.27326 6:-0.22752 7:-0.15343 8:-0.04671 9:-0.04647 10:-0.32205 
0 0 0 0 10 -10 -10 -10 -10 -0 1:-0.7594 2:1.48167 3:-0.68794 4:0.59127 5:0.72671 6:0.25064 7:0.57354 8:0.62458 9:0.43248 10:0.65494 
0 0 0 0 0 -10 -10 -10 -10 -10 1:-0.7594 2:1.48167 3:-0.68794 4:0.67454 5:0.67633 6:0.84834 7:1.1282 8:1.12466 9:0.47354 10:1.14703 
0 0 1.728166283925285 10 10 -0 -10 -0 -0 -0 1:1.31652 2:-0.67475 3:-0.68794 4:0.3831 5:0.42441 6:0.37018 7:0.74687 8:0.91516 9:0.69249 10:0.40351 
0 0 0 0 0 -10 -10 -10 -10 -0 1:-0.7594 2:1.48167 3:-0.68794 4:0.84108 5:0.67633 6:0.84834 7:0.64185 8:0.52321 9:0.61038 10:0.79143 
0 0 0 0 0 -10 -10 -10 -10 -10 1:-0.7594 2:1.48167 3:-0.68794 4:0.96598 5:0.92824 6:0.84834 7:1.15267 8:0.6043 9:1.00723 10:1.1578 
0 0 0 0 0 -10 -10 -10 -10 -10 1:1.31652 2:-0.67475 3:-0.68794 4:1.04925 5:1.18016 6:1.08742 7:1.61761 8:1.3747 9:1.2946 10:1.71095 
0 0 0 0 0 -10 -10 -10 -10 -0 1:1.31652 2:-0.67475 3:-0.68794 4:1.5905 5:1.58322 6:0.84834 7:2.29156 8:1.82523 9:2.1704 10:1.25478 
0 0 0 0 7.746878904489838 -10 -10 -10 -0 -0 1:1.31652 2:-0.67475 3:-0.68794 4:0.96598 5:1.07939 6:0.60926 7:1.10169 8:1.22828 9:1.46793 10:0.85608 
0 0 0 0 0 -10 -10 -10 -0 -0 1:1.31652 2:-0.67475 3:-0.68794 4:1.00762 5:1.23054 6:1.3265 7:1.14452 8:1.29361 9:1.03916 10:0.96743 
0 0 0 9.545906103963354 10 -0 -10 -1.122496052443958 -0 -0 1:-0.7594 2:1.48167 3:-0.68794 4:1.00762 5:0.72671 6:0.7288 7:0.6235 8:0.75973 9:0.66968 10:0.47534 
0 0 0 0 8.387424324955839 -10 -10 -0 -0 -0 1:1.31652 2:-0.67475 3:-0.68794 4:1.5905 5:1.28092 6:1.20696 7:1.72671 8:2.38613 9:1.20793 10:1.30148 
0 0 0 0 0 -10 -10 -10 -3.941736721903849 -0 1:-0.7594 2:1.48167 3:-0.68794 4:1.63214 5:1.73437 6:1.3265 7:2.59846 8:3.0056 9:2.73146 10:2.14557 
0 0 10 10 10 10 -0 -0 -0 -0 1:-0.7594 2:1.48167 3:-0.68794 4:0.1333 5:0.12212 6:0.1311 7:0.07496 8:0.32498 9:-0.1605 10:-0.15324 
0 0 0 10 10 -10 -10 -10 -10 -0 1:-0.7594 2:-0.67475 3:1.45328 4:0.2582 5:0.22288 6:0.37018 7:-0.18198 8:-0.20664 9:-0.3384 10:0.29575 
0 0 0 10 10 -0 -10 -0 -0 -0 1:1.31652 2:-0.67475 3:-0.68794 4:0.46637 5:0.52518 6:0.37018 7:1.24546 8:1.40624 9:0.84301 10:0.4071 
0 0 0 0 0 -10 -10 -10 -10 -0 1:1.31652 2:-0.67475 3:-0.68794 4:0.50801 5:0.82748 6:1.08742 7:0.69793 8:0.7327 9:0.66512 10:0.69086 
0 0 10 10 10 10 -0 -0 -0 -0 1:1.31652 2:-0.67475 3:-0.68794 4:0.50801 5:0.62595 6:0.60926 7:1.18326 8:1.98516 9:0.44161 10:0.40351 
0 0 0 10 10 -0 -10 -0 -0 -0 1:1.31652 2:-0.67475 3:-0.68794 4:0.50801 5:0.67633 6:0.25064 7:0.48178 8:0.7755 9:0.16792 10:0.35681 
0 0 0 0 10 -10 -10 -10 -2.734024009972669 -0 1:1.31652 2:-0.67475 3:-0.68794 4:0.54964 5:0.4748 6:0.37018 7:0.11574 8:0.129 9:0.06757 10:0.25983 
0 0 0 10 10 10 -10 -0 -0 -0 1:-0.7594 2:1.48167 3:-0.68794 4:0.59127 5:0.57556 6:0.25064 7:0.30844 8:0.23487 9:0.14055 10:-0.09577 
0 0 0 10 10 10 -10 -2.610999350340121 -0 -0 1:1.31652 2:-0.67475 3:-0.68794 4:0.71618 5:0.42441 6:0.25064 7:0.08617 8:0.2146 9:0.02651 10:0.08024 
0 0 0 0 0 -10 -10 -10 -10 -10 1:1.31652 2:-0.67475 3:-0.68794 4:0.75781 5:0.62595 6:0.60926 7:0.61025 8:0.39255 9:0.35494 10:0.72678 
0 0 0 0 10 -10 -10 -10 -0 -0 1:-0.7594 2:1.48167 3:-0.68794 4:0.79945 5:0.92824 6:0.25064 7:0.94671 8:1.06609 9:1.21249 10:0.82735 
0 0 0 0 0 -10 -10 -10 -10 -0 1:1.31652 2:-0.67475 3:-0.68794 4:0.92435 5:0.67633 6:0.7288 7:0.74381 8:0.72594 9:0.81108 10:0.91715 
0 0 0 0 0 -10 -10 -10 -10 -0 1:-0.7594 2:1.48167 3:-0.68794 4:1.09089 5:1.18016 6:1.20696 7:1.08232 8:0.92192 9:1.28548 10:1.14703 
0 0 0 10 10 -10 -10 -10 -0 -0 1:-0.7594 2:1.48167 3:-0.68794 4:1.13252 5:0.87786 6:1.68512 7:1.46671 8:1.64276 9:1.56829 10:1.10392 
0 0 0 0 10 -10 -10 -0 -0 -0 1:1.31652 2:-0.67475 3:-0.68794 4:0.84108 5:1.12978 6:0.84834 7:1.18632 8:1.49409 9:1.29004 10:0.77347 
0 0 0 0 0 -10 -10 -10 -0 -0 1:-0.7594 2:1.48167 3:-0.68794 4:0.88272 5:0.92824 6:0.84834 7:0.57456 8:0.48491 9:0.7974 10:0.64775 
0 0 0 0 10 -0 -10 -10 -0 -0 1:-0.7594 2:1.48167 3:-0.68794 4:0.92435 5:0.97863 6:0.1311 7:0.6235 8:0.65611 9:0.77459 10:0.54718 
0 0 0 0 10 -10 -10 -0 -0 -0 1:1.31652 2:-0.67475 3:-0.68794 4:1.21579 5:1.02901 6:0.84834 7:1.42287 8:1.31388 9:2.43496 10:0.76269 
0 0 10 10 10 10 -10 -10 -0 -0 1:-0.7594 2:-0.67475 3:1.45328 4:0.1333 5:0.1725 6:-0.22752 7:-0.22073 8:-0.28774 9:-0.10577 10:-0.09936 
0 0 0 10 10 10 -0 -0 -0 -0 1:1.31652 2:-0.67475 3:-0.68794 4:0.34147 5:0.22288 6:0.25064 7:0.0046 8:0.29344 9:-0.06471 10:-0.14246 
0 0 0 10 10 10 -10 -0 -0 -0 1:-0.7594 2:-0.67475 3:1.45328 4:0.42474 5:0.1725 6:-0.10798 7:-0.06575 8:0.02087 9:0.14055 10:0.00122 
0 0 0 0 0 -10 -10 -10 -10 -0 1:-0.7594 2:1.48167 3:-0.68794 4:0.42474 5:0.62595 6:0.37018 7:0.58578 8:0.67413 9:0.52371 10:0.72678 
0 0 0 10 10 10 -10 -0 -0 -0 1:-0.7594 2:1.48167 3:-0.68794 4:0.50801 5:0.37403 6:0.01156 7:0.17182 8:0.32047 9:0.36406 10:0.10179 
0 0 0 0 10 -10 -10 -10 -0 -0 1:1.31652 2:-0.67475 3:-0.68794 4:0.54964 5:0.82748 6:0.60926 7:0.77134 8:0.8994 9:0.49634 10:0.50408 
0 0 0 0 10 -0 -10 -10 -0 -0 1:1.31652 2:-0.67475 3:-0.68794 4:0.84108 5:0.67633 6:0.48972 7:0.52154 8:0.63584 9:0.50091 10:0.51485 
0 0 0 0 0 -10 -10 -10 -10 -0 1:1.31652 2:-0.67475 3:-0.68794 4:1.00762 5:1.02901 6:1.3265 7:0.81009 8:1.0323 9:0.37318 10:0.97462 
0 0 0 0 0 -10 -10 -10 -10 -10 1:1.31652 2:-0.67475 3:-0.68794 4:1.13252 5:1.23054 6:1.3265 7:1.47181 8:1.31163 9:1.35846 10:1.84026 
0 0 0 10 10 10 -0 -0 -0 -0 1:-0.7594 2:1.48167 3:-0.68794 4:1.21579 5:1.43207 6:0.37018 7:1.50341 8:2.24647 9:1.44513 10:0.82735 
0 0 10 0 0 -10 -10 -10 -6.633901214225938 -0 1:1.31652 2:-0.67475 3:-0.68794 4:1.29906 5:1.12978 6:1.3265 7:1.274 8:1.04807 9:1.91952 10:1.2476 
0 0 0 0 10 -10 -10 -10 -0 -0 1:-0.7594 2:1.48167 3:-0.68794 4:1.54887 5:1.33131 6:1.56558 7:1.53298 8:1.99417 9:0.97074 10:1.40923 
0 0 0 0 0 -10 -10 -10 -0 -0 1:1.31652 2:-0.67475 3:-0.68794 4:1.63214 5:1.63361 6:1.44604 7:2.03666 8:2.52129 9:1.69144 10:1.76842 
0 0 7.757727927320519 10 10 -10 -10 -0 -0 -6.964624502711235 1:1.31652 2:-0.67475 3:-0.68794 4:0.21656 5:0.12212 6:0.48972 7:1.04358 8:1.23053 9:1.18968 10:0.75551 
0 0 0 10 10 7.511080682745003 -10 -0 -0 -0 1:1.31652 2:-0.67475 3:-0.68794 4:0.42474 5:0.32365 6:1.08742 7:0.40021 8:0.66737 9:0.40055 10:0.06946 
0 0 0 0 0 -10 -10 -10 -0 -0 1:1.31652 2:-0.67475 3:-0.68794 4:1.09089 5:1.38169 6:1.20696 7:1.21487 8:1.23053 9:1.39039 10:0.99976 
0 0 0 10 10 -0 -10 -10 -10 -0 1:-0.7594 2:-0.67475 3:1.45328 4:0.17493 5:0.1725 6:0.01156 7:-0.02904 8:-0.24494 9:0.45985 10:0.03713 
0 0 0 3.450013996095558 10 -0 -10 -0 -0 -0 1:-0.7594 2:-0.67475 3:1.45328 4:0.34147 5:0.52518 6:0.37018 7:0.08719 8:0.07268 9:0.31389 10:0.08024 
0 0 0 6.925795208936387 10 -0 -10 -10 -0 -0 1:-0.7594 2:1.48167 3:-0.68794 4:0.71618 5:0.52518 6:0.1311 7:0.59087 8:0.53447 9:1.03916 10:0.42865 
0 0 0 0 0 -10 -10 -10 -10 -10 1:1.31652 2:-0.67475 3:-0.68794 4:0.75781 5:0.87786 6:1.44604 7:0.79581 8:0.92192 9:0.42336 10:1.07519 
0 0 0 0 10 -10 -10 -10 -0 -0 1:-0.7594 2:-0.67475 3:1.45328 4:1.04925 5:1.12978 6:0.25064 7:0.83456 8:0.8566 9:1.05284 10:0.65853 
0 0 0 10 10 6.944076369189477 -10 -10 -0 -0 1:-0.7594 2:1.48167 3:-0.68794 4:0.3831 5:0.27326 6:0.25064 7:0.00155 8:0.12674 9:-0.22437 10:0.04432 
0 0 0 0 0 -10 -10 -10 -10 -0 1:-0.7594 2:1.48167 3:-0.68794 4:0.63291 5:0.62595 6:1.20696 7:0.6235 8:0.59754 9:0.71986 10:0.70882 
0 0 10 10 10 10 -10 -10 -10 -0 1:1.31652 2:-0.67475 3:-0.68794 4:-0.49122 5:-0.48248 6:-0.22752 7:-0.61633 8:-0.67069 9:-0.56647 10:-0.53038 
0 0 0 0 10 -10 -10 -10 -0 -0 1:-0.7594 2:1.48167 3:-0.68794 4:0.46637 5:0.67633 6:0.37018 7:0.29621 8:0.32047 9:0.45073 10:0.33167 
0 0 0 10 10 -0 -10 -10 -10 -0 1:-0.7594 2:1.48167 3:-0.68794 4:-0.36632 5:-0.02903 6:-0.22752 7:-0.38998 8:-0.37109 9:-0.32928 10:-0.20711 
10 10 10 10 10 10 -10 -0 -0 -0 1:1.31652 2:-0.67475 3:-0.68794 4:-1.53208 5:-1.33899 6:-1.18384 7:-1.26887 8:-1.29241 9:-1.25525 10:-1.21284 
10 10 10 10 10 10 -0 -0 -0 -0 1:-0.7594 2:1.48167 3:-0.68794 4:-1.36554 5:-1.43976 6:-1.18384 7:-1.24848 8:-1.18654 9:-1.30999 10:-1.1877 
0 0 0 0 0 -10 -10 -10 -10 -10 1:-0.7594 2:1.48167 3:-0.68794 4:0.46637 5:0.52518 6:1.08742 7:0.38389 8:-0.03545 9:0.17704 10:0.5831 
0 0 10 10 10 10 -0 -0 -0 -0 1:-0.7594 2:1.48167 3:-0.68794 4:-0.15815 5:-0.33133 6:-0.58614 7:-0.48786 8:-0.43191 9:-0.55279 10:-0.51602 
0 0 0 0 0 -10 -10 -10 -10 -10 1:-0.7594 2:1.48167 3:-0.68794 4:-0.07488 5:-0.1298 6:0.60926 7:-0.14732 8:-0.76079 9:-0.09664 10:0.58669 
0 0 0 0 10 -10 -10 -10 -0 -0 1:1.31652 2:-0.67475 3:-0.68794 4:0.67454 5:0.67633 6:0.84834 7:0.75911 8:0.81154 9:0.86126 10:0.50408 
0 0 0 0 10 -7.547749479693954 -10 -6.801151068174402 -0 -0 1:-0.7594 2:1.48167 3:-0.68794 4:1.7154 5:1.63361 6:0.60926 7:2.42207 8:3.19482 9:2.16584 10:1.40923 
0 0 0 0 0 -10 -10 -10 -10 -0 1:1.31652 2:-0.67475 3:-0.68794 4:2.04848 5:1.9359 6:1.80466 7:2.78505 8:3.11823 9:2.7497 10:2.47962 
0 0 0 0 10 -10 -10 -10 -0 -0 1:-0.7594 2:1.48167 3:-0.68794 4:0.67454 5:0.72671 6:0.25064 7:0.51033 8:0.41058 9:0.9388 10:0.38914 
0 0 0 0 10 -10 -10 -10 -0 -0 1:1.31652 2:-0.67475 3:-0.68794 4:1.13252 5:1.07939 6:0.60926 7:1.25973 8:1.50761 9:1.07109 10:0.9818 
0 10 10 10 10 10 -0 -0 -0 -0 1:-0.7594 2:-0.67475 3:1.45328 4:-0.28305 5:-0.4321 6:-0.34706 7:-0.55108 8:-0.48372 9:-0.49805 10:-0.55553 
0 0 0 0 0 -10 -10 -10 -10 -10 1:1.31652 2:-0.67475 3:-0.68794 4:0.46637 5:0.32365 6:0.84834 7:0.80907 8:0.81605 9:0.82021 10:0.62979 
0 0 0 0 10 -10 -10 -10 -10 -0 1:-0.7594 2:-0.67475 3:1.45328 4:0.50801 5:0.52518 6:0.1311 7:0.03621 8:-0.09176 9:-0.12401 10:0.40351 
0 0 0 10 10 10 -10 -0 -0 -0 1:-0.7594 2:1.48167 3:-0.68794 4:0.88272 5:0.67633 6:0.37018 7:0.35025 8:0.41733 9:0.65143 10:0.18799 
0 0 1.783923382145089 10 10 10 10 -0 -0 -0 1:1.31652 2:-0.67475 3:-0.68794 4:0.67454 5:0.67633 6:1.20696 7:0.60515 8:1.03906 9:0.60582 10:0.15207 
0 0 0 0 10 10 10 -0 -0 -0 1:1.31652 2:-0.67475 3:-0.68794 4:0.88272 5:0.82748 6:0.60926 7:0.75809 8:0.97148 9:0.84301 10:0.39632 
0 0 0 0 10 10 10 -10 -10 -0 1:1.31652 2:-0.67475 3:-0.68794 4:0.05003 5:-0.02903 6:0.25064 7:0.00562 8:-0.03319 9:0.05844 10:0.0982 
0 0 0 0 10 10 10 -10 -0 -0 1:1.31652 2:-0.67475 3:-0.68794 4:0.46637 5:0.52518 6:0.25064 7:0.44915 8:0.72594 9:0.11774 10:0.47534 
0 0 0 10 10 10 10 -0 -0 -0 1:-0.7594 2:-0.67475 3:1.45328 4:0.54964 5:0.67633 6:0.1311 7:0.29723 8:0.48716 9:0.2409 10:0.14489 
0 0 0 10 10 10 10 -0 -0 -0 1:1.31652 2:-0.67475 3:-0.68794 4:0.59127 5:0.62595 6:0.37018 7:0.76013 8:0.59754 9:1.87846 10:0.18799 
0 0 0 0 0 10 -0 -10 -0 -0 1:1.31652 2:-0.67475 3:-0.68794 4:0.63291 5:0.42441 6:1.3265 7:1.04256 8:1.1607 9:1.32197 10:0.87404 
0 0 10 10 10 10 10 -0 -0 -0 1:1.31652 2:-0.67475 3:-0.68794 4:0.84108 5:0.82748 6:-0.4666 7:0.09739 8:0.43535 9:-0.00542 10:-0.04189 
0 0 0 0 10 10 10 -0 -0 -0 1:1.31652 2:-0.67475 3:-0.68794 4:1.21579 5:1.33131 6:0.84834 7:1.33212 8:1.71034 9:1.02091 10:0.90637 
0 0 0 0 0 10 -0 -10 -0 -0 1:1.31652 2:-0.67475 3:-0.68794 4:1.34069 5:0.97863 6:1.20696 7:1.43612 8:1.38596 9:2.0518 10:1.22964 
0 0 10 10 10 10 10 -0 -0 -0 1:-0.7594 2:1.48167 3:-0.68794 4:0.09166 5:-0.07942 6:0.25064 7:0.80601 8:1.16521 9:0.86126 10:0.34963 
0 0 0 0 0 10 -0 -10 -0 -0 1:1.31652 2:-0.67475 3:-0.68794 4:1.34069 5:1.02901 6:0.60926 7:1.46059 8:1.47156 9:1.79636 10:1.19731 
0 0 0 0 0 0 -10 -10 -10 -0 1:1.31652 2:-0.67475 3:-0.68794 4:1.13252 5:1.18016 6:1.44604 7:1.3464 8:1.1134 9:1.8146 10:1.30866 
0 8.733490521734957 10 10 10 10 10 -0 -0 -0 1:1.31652 2:-0.67475 3:-0.68794 4:-0.49122 5:-0.02903 6:-0.10798 7:-0.10449 8:0.34525 9:-0.08296 10:-0.67047 
0 0 0 10 10 10 10 -0 -0 -0 1:-0.7594 2:1.48167 3:-0.68794 4:0.00839 5:-0.07942 6:-0.10798 7:-0.23398 8:-0.18637 9:-0.38858 10:-0.22148 
0 0 0 0 10 10 10 -10 -0 -0 1:1.31652 2:-0.67475 3:-0.68794 4:0.50801 5:0.52518 6:0.25064 7:0.7693 8:0.99851 9:0.32301 10:0.60465 
10 10 5.153628411528319 10 10 10 10 -0 -0 -0 1:-0.7594 2:1.48167 3:-0.68794 4:0.88272 5:0.87786 6:1.20696 7:0.68672 8:0.79577 9:0.28196 10:-0.54834 
0 0 10 10 10 10 10 -10 -10 -0 1:1.31652 2:-0.67475 3:-0.68794 4:-0.49122 5:-0.48248 6:-0.82522 7:-0.69484 8:-0.77205 9:-0.87665 10:-0.35079 
0 0 0 0 10 10 -0 -10 -10 -0 1:1.31652 2:-0.67475 3:-0.68794 4:-0.11651 5:-0.07942 6:0.01156 7:-0.2819 8:-0.45218 9:-0.26998 10:-0.06344 
0 0 0 0 0 0 -10 -10 -10 -10 1:1.31652 2:-0.67475 3:-0.68794 4:0.29983 5:0.42441 6:0.37018 7:0.1708 8:0.0006 9:0.82477 10:0.79861 
0 10 10 10 10 10 10 -10 -10 -0 1:-0.7594 2:-0.67475 3:1.45328 4:-0.44959 5:-0.33133 6:-0.82522 7:-0.73562 8:-0.86892 9:-0.66226 10:-0.49447 
0 0 10 10 10 10 10 -0 -0 -0 1:-0.7594 2:1.48167 3:-0.68794 4:-0.40795 5:-0.33133 6:-0.34706 7:-0.49092 8:-0.5513 9:-0.08296 10:-0.60222 
0 0 0 0 0 10 -10 -10 -10 -10 1:1.31652 2:-0.67475 3:-0.68794 4:0.42474 5:0.27326 6:-0.22752 7:0.37064 8:0.03889 9:0.37775 10:0.5831 
0 0 0 0 0 0 -10 -10 -10 -10 1:-0.7594 2:1.48167 3:-0.68794 4:0.59127 5:0.67633 6:0.60926 7:0.65103 8:0.38129 9:0.30476 10:0.94229 
0 0 0 0 0 10 -10 -10 -0 -0 1:-0.7594 2:1.48167 3:-0.68794 4:0.71618 5:0.87786 6:0.84834 7:0.88656 8:0.76874 9:1.22618 10:0.76629 
0 0 0 0 10 10 10 -0 -0 -0 1:1.31652 2:-0.67475 3:-0.68794 4:0.92435 5:0.87786 6:0.37018 7:1.09048 8:1.00752 9:1.07565 10:0.40351 
0 0 0 0 0 0 -10 -10 -10 -0 1:-0.7594 2:1.48167 3:-0.68794 4:1.5905 5:1.78475 6:2.16328 7:2.53627 8:2.28026 9:2.08829 10:2.34312 
0 0 0 0 10 10 10 -10 -0 -0 1:1.31652 2:-0.67475 3:-0.68794 4:0.54964 5:0.52518 6:0.1311 7:0.20445 8:0.09295 9:0.54196 10:0.11616 
0 0 0 0 0 10 -0 -10 -0 -0 1:1.31652 2:-0.67475 3:-0.68794 4:1.21579 5:1.18016 6:0.96788 7:1.69816 8:1.98742 9:1.67776 10:1.37332 
0 0 0 10 10 10 10 -10 -0 -0 1:-0.7594 2:-0.67475 3:1.45328 4:0.46637 5:0.52518 6:0.01156 7:0.19935 8:0.24388 9:0.03564 10:0.22391 
0 0 0 10 10 10 10 -0 -0 -0 1:-0.7594 2:-0.67475 3:1.45328 4:0.46637 5:0.52518 6:0.01156 7:0.00155 8:0.14477 9:-0.14226 10:-0.00597 
0 0 0 0 10 10 -0 -10 -0 -0 1:-0.7594 2:1.48167 3:-0.68794 4:0.63291 5:0.67633 6:0.7288 7:0.52868 8:0.59079 9:0.61038 10:0.51126 
0 0 0 10 10 10 10 -0 -0 -0 1:-0.7594 2:1.48167 3:-0.68794 4:0.84108 5:0.67633 6:0.48972 7:1.0293 8:1.10664 9:0.9753 10:0.57592 
0 0 0 0 10 10 10 -0 -0 -0 1:1.31652 2:-0.67475 3:-0.68794 4:1.25743 5:1.07939 6:0.1311 7:0.88962 8:1.09537 9:1.08021 10:0.61902 
0 0 0 0 0 0 -10 -10 -10 -10 1:1.31652 2:-0.67475 3:-0.68794 4:1.38233 5:1.23054 6:1.20696 7:1.56357 8:1.43552 9:1.37214 10:1.7325 
0 0 10 10 10 10 10 -0 -0 -0 1:-0.7594 2:-0.67475 3:1.45328 4:0.00839 5:-0.02903 6:-0.34706 7:-0.35022 8:-0.27422 9:-0.27454 10:-0.50883 
0 0 0 0 10 10 10 -10 -0 -0 1:1.31652 2:-0.67475 3:-0.68794 4:0.79945 5:0.72671 6:0.60926 7:0.52358 8:0.54799 9:0.70161 10:0.47534 
0 0 0 0 0 0 -10 -10 -10 -0 1:1.31652 2:-0.67475 3:-0.68794 4:1.34069 5:1.43207 6:1.20696 7:2.15392 8:2.39064 9:2.09285 10:1.80075 
0 0 0 10 10 10 10 -0 -0 -0 1:-0.7594 2:1.48167 3:-0.68794 4:0.42474 5:0.12212 6:1.20696 7:1.90718 8:2.49876 9:1.7918 10:1.22605 
0 0 0 0 0 10 10 -10 -0 -0 1:1.31652 2:-0.67475 3:-0.68794 4:0.84108 5:0.72671 6:0.96788 7:0.80397 8:0.92643 9:1.06653 10:0.70882 
0 0 10 10 10 10 10 -10 -10 -0 1:-0.7594 2:-0.67475 3:1.45328 4:0.09166 5:-0.07942 6:0.1311 7:-0.25233 8:-0.23818 9:-0.40226 10:-0.13528 
0 0 0 0 0 10 -0 -10 -10 -0 1:1.31652 2:-0.67475 3:-0.68794 4:0.2582 5:0.52518 6:0.48972 7:0.06374 8:-0.11203 9:0.11774 10:0.25983 
0 0 10 10 10 10 10 -0 -0 -0 1:1.31652 2:-0.67475 3:-0.68794 4:0.75781 5:0.4748 6:-0.22752 7:0.28499 8:0.58853 9:0.01283 10:0.19158 
0 0 0 0 0 10 10 -10 -0 -0 1:1.31652 2:-0.67475 3:-0.68794 4:0.84108 5:0.92824 6:1.08742 7:0.84373 8:1.08186 9:0.61494 10:0.69086 
0 0 0 0 10 10 -0 -10 -10 -0 1:-0.7594 2:1.48167 3:-0.68794 4:-0.03324 5:0.02135 6:0.48972 7:-0.23806 8:-0.3373 9:-0.25173 10:-0.09936 
0 0 0 0 0 0 -10 -10 -10 -10 1:-0.7594 2:-0.67475 3:1.45328 4:1.67377 5:1.43207 6:1.9242 7:2.48937 8:1.86577 9:2.3711 10:2.98966 
0 0 0 0 0 10 -3.117335664358916 -10 -0 -0 1:1.31652 2:-0.67475 3:-0.68794 4:1.42396 5:1.43207 6:1.56558 7:2.74121 8:3.48541 9:2.6083 10:1.84744 
0 0 0 0 0 0 -10 -10 -10 -0 1:-0.7594 2:1.48167 3:-0.68794 4:1.63214 5:1.68399 6:1.3265 7:2.69533 8:3.22186 9:1.83741 10:2.4868 
0 0 0 0 10 10 -0 -10 -0 -0 1:-0.7594 2:1.48167 3:-0.68794 4:1.00762 5:1.18016 6:0.7288 7:1.10373 8:1.14493 9:0.93424 10:0.72678 
0 0 10 10 10 10 10 -0 -0 -0 1:-0.7594 2:-0.67475 3:1.45328 4:0.1333 5:0.07173 6:0.37018 7:-0.25845 8:-0.16835 9:-0.12401 10:-0.35079 
0 0 0 10 10 10 10 -0 -0 -0 1:1.31652 2:-0.67475 3:-0.68794 4:0.21656 5:0.22288 6:0.96788 7:-0.00457 8:0.36552 9:-0.197 10:-0.09936 
0 0 0 0 10 10 10 -10 -0 -0 1:1.31652 2:-0.67475 3:-0.68794 4:0.3831 5:0.37403 6:0.48972 7:0.3788 8:0.70567 9:-0.15138 10:0.43943 
0 0 0 0 10 10 3.925462150506289 -10 -0 -0 1:-0.7594 2:1.48167 3:-0.68794 4:0.42474 5:0.72671 6:0.7288 7:0.55315 8:0.66062 9:0.6195 10:0.51126 
0 0 0 0 10 10 10 -0 -0 -0 1:-0.7594 2:-0.67475 3:1.45328 4:0.59127 5:0.67633 6:0.37018 7:0.3166 8:0.57276 9:0.03108 10:0.26342 
0 0 0 0 0 0 -10 -10 -10 -0 1:1.31652 2:-0.67475 3:-0.68794 4:1.4656 5:1.38169 6:1.80466 7:2.21 8:2.35685 9:2.35285 10:1.91928 
0 0 10 10 10 10 10 -0 -0 -0 1:-0.7594 2:1.48167 3:-0.68794 4:0.67454 5:0.57556 6:0.37018 7:0.55315 8:0.84533 9:0.78372 10:0.1413 
0 0 0 0 10 10 10 -10 -0 -0 1:-0.7594 2:1.48167 3:-0.68794 4:-0.15815 5:0.02135 6:0.25064 7:-0.37673 8:-0.33504 9:-0.32472 10:-0.20711 
0 0 0 10 10 10 10 -10 -10 -0 1:-0.7594 2:1.48167 3:-0.68794 4:-0.65776 5:-0.53286 6:0.25064 7:-0.70096 8:-0.80359 9:-0.50718 10:-0.60222 
0 0 0 0 10 10 10 -10 -0 -0 1:-0.7594 2:1.48167 3:-0.68794 4:0.1333 5:0.67633 6:0.37018 7:0.20241 8:0.15603 9:0.12231 10:0.15207 
0 0 0 10 10 10 10 -0 -0 -1.754893238831529 1:1.31652 2:-0.67475 3:-0.68794 4:-0.28305 5:-0.1298 6:0.01156 7:-0.57045 8:-0.62113 9:-0.48437 10:-0.63814 
0 0 0 0 10 10 10 -0 -0 -0 1:1.31652 2:-0.67475 3:-0.68794 4:0.88272 5:0.82748 6:1.20696 7:0.71119 8:0.6043 9:1.42232 10:0.33167 
0 0 0 0 10 10 -0 -10 -10 -0 1:1.31652 2:-0.67475 3:-0.68794 4:0.50801 5:0.4748 6:0.25064 7:0.32272 8:0.343 9:0.24546 10:0.51126 
0 10 10 10 10 10 10 -0 -0 -0 1:-0.7594 2:-0.67475 3:1.45328 4:-0.28305 5:-0.28095 6:-0.4666 7:-0.61123 8:-0.64365 9:-0.37945 10:-0.60222 
0 0 0 0 10 10 10 -8.81901766632595 -0 -0 1:-0.7594 2:1.48167 3:-0.68794 4:0.34147 5:0.82748 6:0.37018 7:0.19527 8:0.20559 9:0.35494 10:0.11616 
0 0 0 0 10 10 -0 -10 -10 -0 1:1.31652 2:-0.67475 3:-0.68794 4:0.21656 5:0.42441 6:-0.22752 7:0.18609 8:0.08394 9:0.52827 10:0.36759 
0 0 0 0 0 10 -10 -10 -10 -0 1:-0.7594 2:1.48167 3:-0.68794 4:0.75781 5:1.18016 6:0.37018 7:0.42774 8:0.3047 9:0.46441 10:0.76269 
0 0 10 10 10 10 10 -0 -3.808093206846153 -0 1:-0.7594 2:1.48167 3:-0.68794 4:-0.69939 5:-0.53286 6:-0.58614 7:-0.8437 8:-0.90496 9:-0.80367 10:-0.77463 
0 10 10 10 10 10 10 -0 -0 -0 1:-0.7594 2:1.48167 3:-0.68794 4:-0.9492 5:-0.88554 6:-0.58614 7:-0.9008 8:-0.87568 9:-0.73069 10:-1.0081 
0 0 0 0 0 10 -10 -10 -10 -10 1:-0.7594 2:-0.67475 3:1.45328 4:0.09166 5:0.42441 6:0.7288 7:-0.09736 8:-0.24269 9:-0.22893 10:0.40351 
0 0 10 10 10 10 10 -10 -0 -0 1:1.31652 2:-0.67475 3:-0.68794 4:-0.57449 5:-0.58325 6:-0.4666 7:-0.70402 8:-0.80134 9:-0.33384 10:-0.5663 
0 10 10 10 10 10 10 -0 -0 -0 1:-0.7594 2:1.48167 3:-0.68794 4:-0.78266 5:-0.83516 6:-0.58614 7:-0.90182 8:-0.95452 9:-0.67595 10:-0.92549 
10 10 10 10 10 10 10 -10 -10 -0 1:1.31652 2:-0.67475 3:-0.68794 4:-1.74025 5:-1.59091 6:-1.18384 7:-1.27601 8:-1.34197 9:-1.30999 10:-1.1446 
0 0 0 0 10 10 -0 -10 -10 -0 1:-0.7594 2:1.48167 3:-0.68794 4:0.21656 5:0.22288 6:0.37018 7:-0.0892 8:-0.31702 9:0.42336 10:-0.04189 
0 0 0 0 0 0 -10 -10 -10 -10 1:-0.7594 2:1.48167 3:-0.68794 4:0.05003 5:0.4748 6:0.60926 7:0.30946 8:-0.19763 9:0.92056 10:0.41428 
0 0 0 0 0.6400648036051678 10 -0 -10 -0 -0 1:-0.7594 2:1.48167 3:-0.68794 4:0.79945 5:0.97863 6:0.48972 7:1.10883 8:1.21251 9:0.86126 10:0.93151 
0 0 0 0 0 5.610707655987974 -10 -10 -10 -0 1:-0.7594 2:1.48167 3:-0.68794 4:0.84108 5:0.82748 6:1.44604 7:1.12922 8:1.03681 9:0.95249 10:1.02131 
0 0 0 10 10 10 10 -0 -0 -0 1:1.31652 2:-0.67475 3:-0.68794 4:0.54964 5:0.57556 6:0.37018 7:0.62656 8:0.74396 9:0.7381 10:0.25983 
0 0 0 0 0 10 -10 -10 -10 -0 1:-0.7594 2:1.48167 3:-0.68794 4:0.79945 5:1.02901 6:0.96788 7:1.02522 8:1.05708 9:0.87038 10:1.0716 
0 0 0 0 0 10 -10 -10 -10 -0 1:1.31652 2:-0.67475 3:-0.68794 4:0.92435 5:0.82748 6:0.84834 7:1.11393 8:1.18773 9:0.82021 10:1.12188 
0 0 0 0 0 10 -0 -10 -2.814400494269169 -0 1:1.31652 2:-0.67475 3:-0.68794 4:1.00762 5:1.12978 6:0.84834 7:1.64616 8:1.89055 9:1.47249 10:1.38768 
0 0 0 0 10 10 10 -0 -0 -0 1:1.31652 2:-0.67475 3:-0.68794 4:1.00762 5:0.92824 6:0.84834 7:1.0395 8:1.23278 9:1.08021 10:0.79143 
0 0 0 0 0 0 -10 -10 -10 -10 1:1.31652 2:-0.67475 3:-0.68794 4:1.04925 5:1.12978 6:1.68512 7:1.73282 8:1.38371 9:1.16232 10:1.58883 
0 0 0 0 10 10 -10 -10 -0 -0 1:-0.7594 2:1.48167 3:-0.68794 4:1.5905 5:1.18016 6:1.08742 7:1.49118 8:1.37921 9:1.84653 10:1.19372 
0 0 0 0 0 0 -10 -10 -0 -0 1:1.31652 2:-0.67475 3:-0.68794 4:1.84031 5:1.58322 6:1.80466 7:2.24772 8:2.41767 9:2.53531 10:1.87618 
0 10 10 10 10 10 10 -0 -0 -0 1:-0.7594 2:-0.67475 3:1.45328 4:-0.49122 5:-0.68401 6:-0.70568 7:-0.98441 8:-0.97704 9:-0.98157 10:-0.90394 
0 0 0 10 10 10 10 -0 -0 -0 1:-0.7594 2:-0.67475 3:1.45328 4:0.21656 5:0.22288 6:0.1311 7:-0.08002 8:0.06818 9:-0.08752 10:-0.11373 
0 0 0 0 10 10 10 -0 -0 -0 1:-0.7594 2:1.48167 3:-0.68794 4:0.84108 5:0.97863 6:0.84834 7:0.65511 8:0.84759 9:0.68793 10:0.47175 
0 0 0 0 0 10 -10 -10 -10 -0 1:1.31652 2:-0.67475 3:-0.68794 4:1.00762 5:1.18016 6:0.48972 7:1.38412 8:1.73963 9:0.58757 10:1.39127 
0 0 0 0 0 0 -10 -10 -10 -0 1:-0.7594 2:1.48167 3:-0.68794 4:1.42396 5:1.58322 6:1.20696 7:1.90616 8:1.74413 9:1.9925 10:1.85822 
0 0 0 0 10 10 -0 -10 -0 -0 1:1.31652 2:-0.67475 3:-0.68794 4:0.84108 5:0.62595 6:0.96788 7:0.62656 8:0.41283 9:1.31284 10:0.47534 
0 0 6.764380829320061 10 10 10 10 -0 -0 -0 1:1.31652 2:-0.67475 3:-0.68794 4:0.88272 5:0.72671 6:0.25064 7:0.90185 8:1.35668 9:0.56477 10:0.51126 
0 0 0 0 0 10 -0 -0 -0 -0 1:1.31652 2:-0.67475 3:-0.68794 4:1.09089 5:1.02901 6:1.80466 7:1.94694 8:2.38388 9:2.08829 10:1.29789 
0 0 0 0 10 10 10 -0 -0 -0 1:1.31652 2:-0.67475 3:-0.68794 4:1.29906 5:1.07939 6:0.7288 7:1.5962 8:2.17213 9:1.14407 10:1.12188 
0 0 0 10 10 10 10 -0 -0 -0 1:-0.7594 2:-0.67475 3:1.45328 4:0.54964 5:0.52518 6:0.1311 7:0.14837 8:0.26866 9:-0.0191 10:0.15207 
0 0 0 0 0 0 -10 -10 -2.268054144460335 -0 1:1.31652 2:-0.67475 3:-0.68794 4:0.96598 5:1.18016 6:1.08742 7:1.79094 8:1.81847 9:2.18864 10:1.4703 
0 0 0 0 0 10 -0 -10 -0 -0 1:1.31652 2:-0.67475 3:-0.68794 4:1.04925 5:1.18016 6:1.08742 7:1.34436 8:1.37695 9:1.42688 10:0.99976 
0 0 0 0 0 0 -10 -10 -10 -0.2531920222440159 1:-0.7594 2:1.48167 3:-0.68794 4:1.29906 5:1.02901 6:1.44604 7:1.58804 8:1.59771 9:1.44513 10:1.66426 
0 0 0 0 0 0 -10 -10 -10 -10 1:-0.7594 2:1.48167 3:-0.68794 4:1.7154 5:1.53284 6:1.20696 7:2.27117 8:1.98066 9:3.09181 10:2.34672 
0 0 0 0 10 10 10 -10 -10 -10 1:-0.7594 2:1.48167 3:-0.68794 4:0.34147 5:0.37403 6:-0.34706 7:0.00358 8:-0.20664 9:-0.0191 10:-0.06344 
0 0 0 0 10 10 10 -10 -0 -0 1:1.31652 2:-0.67475 3:-0.68794 4:0.34147 5:0.4748 6:0.37018 7:0.2177 8:0.27767 9:0.02195 10:0.15207 
0 0 0 0 0 10 10 10 -10 -0 1:1.31652 2:-0.67475 3:-0.68794 4:0.63291 5:0.52518 6:0.7288 7:0.7173 8:0.43535 9:1.42688 10:0.64775 
0 0 0 0 10 10 10 10 -0 -0 1:1.31652 2:-0.67475 3:-0.68794 4:0.75781 5:0.62595 6:0.1311 7:0.40735 8:0.37904 9:0.92968 10:0.33167 
0 0 0 0 0 0 10 -10 -10 -10 1:-0.7594 2:1.48167 3:-0.68794 4:0.79945 5:0.87786 6:0.7288 7:0.47566 8:0.05691 9:0.29564 10:0.72678 
0 0 0 0 0 0 10 -5.69002060524419 -10 -10 1:-0.7594 2:1.48167 3:-0.68794 4:0.84108 5:1.12978 6:0.96788 7:1.0711 8:0.56375 9:1.5546 10:0.97821 
0 0 0 0 10 10 10 10 -0 -0 1:-0.7594 2:1.48167 3:-0.68794 4:0.92435 5:0.97863 6:0.37018 7:0.93958 8:1.05708 9:1.21705 10:0.76269 
0 0 0 0 10 10 10 10 -0 -0 1:1.31652 2:-0.67475 3:-0.68794 4:1.00762 5:0.82748 6:0.84834 7:1.00177 8:1.32064 9:0.51915 10:0.716 
0 0 0 0 0 10 10 10 -10 -0 1:1.31652 2:-0.67475 3:-0.68794 4:1.13252 5:1.02901 6:0.84834 7:0.79377 8:0.65836 9:1.1167 10:0.94229 
0 0 0 0 0 0 10 -0 -10 -0 1:-0.7594 2:1.48167 3:-0.68794 4:1.25743 5:1.02901 6:1.08742 7:1.31377 8:1.21702 9:1.11214 10:1.3338 
0 0 0 0 0 0 10 -0 -10 -10 1:-0.7594 2:1.48167 3:-0.68794 4:0.50801 5:0.77709 6:0.25064 7:0.51033 8:0.24839 9:0.28196 10:0.84172 
0 10 10 10 10 10 10 10 -0 -0 1:-0.7594 2:1.48167 3:-0.68794 4:-0.74103 5:-0.58325 6:-0.4666 7:-0.755 8:-0.75403 9:-0.73525 10:-0.78182 
0 0 0 10 10 10 10 10 -0 -0 1:-0.7594 2:1.48167 3:-0.68794 4:0.46637 5:0.4748 6:-0.4666 7:0.22688 8:0.17855 9:0.69705 10:0.18799 
0 0 0 0 10 10 10 10 -0 -0 1:1.31652 2:-0.67475 3:-0.68794 4:0.92435 5:0.87786 6:0.25064 7:0.5144 8:0.55474 9:0.5602 10:0.51126 
10 10 10 10 10 10 10 10 -0 -0 1:1.31652 2:-0.67475 3:-0.68794 4:-1.78189 5:-1.74205 6:-1.90108 7:-1.44527 8:-1.43207 9:-1.34648 10:-1.42836 
0 0 9.989341754923764 10 10 10 10 10 -0 -10 1:1.31652 2:-0.67475 3:-0.68794 4:-0.19978 5:-0.18018 6:-0.22752 7:-0.24418 8:-0.3801 9:-0.11489 10:-0.42263 
0 0 0 0 7.476630268361222 10 10 10 -10 -10 1:-0.7594 2:1.48167 3:-0.68794 4:-0.40795 5:-0.28095 6:0.1311 7:-0.52763 8:-0.86666 9:-0.57104 10:-0.37234 
0 0 0 0 10 10 10 10 -10 -0 1:1.31652 2:-0.67475 3:-0.68794 4:0.17493 5:0.42441 6:0.25064 7:0.10351 8:0.12449 9:-0.2791 10:0.17003 
0 0 0 0 0 10 10 10 -10 -0 1:1.31652 2:-0.67475 3:-0.68794 4:0.46637 5:0.52518 6:0.96788 7:0.64491 8:0.54348 9:0.87951 10:0.61902 
0 0 0 0 10 10 10 10 -0 -0 1:-0.7594 2:1.48167 3:-0.68794 4:0.59127 5:0.57556 6:0.25064 7:0.40123 8:0.23712 9:0.8567 10:0.3604 
0 0 0 0 0 10 10 10 -0 -0 1:1.31652 2:-0.67475 3:-0.68794 4:0.88272 5:0.97863 6:0.25064 7:0.99463 8:1.23053 9:0.60126 10:0.94229 
0 0 0 0 0 9.091389039922808 10 10 -0 -0 1:1.31652 2:-0.67475 3:-0.68794 4:1.75704 5:1.63361 6:0.84834 7:2.14372 8:2.47849 9:1.88303 10:1.78997 
0 0 10 10 10 10 10 10 -0 -0 1:1.31652 2:-0.67475 3:-0.68794 4:-0.36632 5:-0.33133 6:-0.4666 7:-0.48786 8:-0.47696 9:-0.47981 10:-0.4801 
0 0 0 0 10 10 10 10 -0 -0 1:-0.7594 2:1.48167 3:-0.68794 4:0.96598 5:0.87786 6:0.7288 7:0.81111 8:0.58853 9:1.7918 10:0.34963 
0 0 0 0 0 10 10 -0 -10 -10 1:-0.7594 2:1.48167 3:-0.68794 4:1.09089 5:1.07939 6:0.37018 7:0.97934 8:0.74171 9:1.50899 10:1.05005 
0 0 0 0 0 0 10 -0 -10 -0 1:1.31652 2:-0.67475 3:-0.68794 4:1.42396 5:1.33131 6:1.3265 7:1.75831 8:1.84099 9:1.66408 10:1.70018 
0 0 0 0 10 10 10 10 -0 -0 1:-0.7594 2:1.48167 3:-0.68794 4:1.63214 5:1.58322 6:0.96788 7:1.81541 8:2.19466 9:2.06548 10:1.068 
0 0 0 0 0 0 10 10 -0 -0 1:1.31652 2:-0.67475 3:-0.68794 4:1.79867 5:1.88552 6:1.20696 7:3.04811 8:3.55975 9:3.01883 10:1.9121 
0 0 0 0 10 10 10 10 -10 -0 1:1.31652 2:-0.67475 3:-0.68794 4:0.46637 5:0.37403 6:0.25064 7:0.25237 8:0.32498 9:0.12687 10:0.34604 
0 0 5.285508220868552 10 10 10 10 10 -0 -0 1:-0.7594 2:1.48167 3:-0.68794 4:0.46637 5:0.32365 6:-0.34706 7:-0.08818 8:0.01637 9:0.13599 10:-0.31487 
